tree
version=v4
num_class=1
num_tree_per_iteration=1
label_index=0
max_feature_idx=59
objective=regression
feature_names=icf_tms_nox_a br1_eo_o2_a icf_ccs_fg_t_1 icf_scs_fg_t_1 icf_tms_nox_a_mean_60s icf_tms_nox_a_std_60s icf_tms_nox_a_mean_180s icf_tms_nox_a_std_180s icf_tms_nox_a_mean_300s icf_tms_nox_a_std_300s icf_tms_nox_a_mean_600s icf_tms_nox_a_std_600s icf_tms_nox_a_momentum_max_up_15s icf_tms_nox_a_momentum_max_down_15s icf_tms_nox_a_momentum_max_up_30s icf_tms_nox_a_momentum_max_down_30s icf_tms_nox_a_momentum_max_up_60s icf_tms_nox_a_momentum_max_down_60s br1_eo_o2_a_mean_60s br1_eo_o2_a_std_60s br1_eo_o2_a_mean_180s br1_eo_o2_a_std_180s br1_eo_o2_a_mean_300s br1_eo_o2_a_std_300s br1_eo_o2_a_mean_600s br1_eo_o2_a_std_600s br1_eo_o2_a_momentum_max_up_15s br1_eo_o2_a_momentum_max_down_15s br1_eo_o2_a_momentum_max_up_30s br1_eo_o2_a_momentum_max_down_30s br1_eo_o2_a_momentum_max_up_60s br1_eo_o2_a_momentum_max_down_60s icf_ccs_fg_t_1_mean_60s icf_ccs_fg_t_1_std_60s icf_ccs_fg_t_1_mean_180s icf_ccs_fg_t_1_std_180s icf_ccs_fg_t_1_mean_300s icf_ccs_fg_t_1_std_300s icf_ccs_fg_t_1_mean_600s icf_ccs_fg_t_1_std_600s icf_ccs_fg_t_1_momentum_max_up_15s icf_ccs_fg_t_1_momentum_max_down_15s icf_ccs_fg_t_1_momentum_max_up_30s icf_ccs_fg_t_1_momentum_max_down_30s icf_ccs_fg_t_1_momentum_max_up_60s icf_ccs_fg_t_1_momentum_max_down_60s icf_scs_fg_t_1_mean_60s icf_scs_fg_t_1_std_60s icf_scs_fg_t_1_mean_180s icf_scs_fg_t_1_std_180s icf_scs_fg_t_1_mean_300s icf_scs_fg_t_1_std_300s icf_scs_fg_t_1_mean_600s icf_scs_fg_t_1_std_600s icf_scs_fg_t_1_momentum_max_up_15s icf_scs_fg_t_1_momentum_max_down_15s icf_scs_fg_t_1_momentum_max_up_30s icf_scs_fg_t_1_momentum_max_down_30s icf_scs_fg_t_1_momentum_max_up_60s icf_scs_fg_t_1_momentum_max_down_60s
feature_infos=[0:158.23750305175781] [0.0093750003725290298:19.837499618530273] [498.82501220703125:1200] [500.32501220703125:1129.199951171875] [0:155.01979192097983] [0:16.550179879652621] [0:142.55625046624078] [0:34.018554866108246] [0:126.89062512715658] [0:44.353512445412079] [0:121.34552103678385] [0:52.543407854704959] [-0.83500061035156248:1.8149993896484375] [-2.1074996948242188:0.88749999999999996] [-0.60499954223632812:1.8149993896484375] [-2.1074996948242188:0.51249999999999996] [-0.34749984741210938:1.8149993896484375] [-2.1074996948242188:0.30500001907348634] [0.012369791744276881:19.604296843210857] [0.0029389451674899877:5.8604827030045854] [0.037500000196612544:18.686935742696125] [0.016572815184059706:5.8689629461891171] [0.20166666628792881:18.641171868642171] [0.016572815184059706:4.7967533399194355] [0.94252604281840224:18.594309902191164] [0.016572815184059706:5.0139815988017942] [-0.41812496185302733:0.63406238555908201] [-0.98249988555908208:0.22250003814697267] [-0.14406251907348633:0.68624992370605464] [-0.98249988555908208:0.11499996185302734] [-0.088437461853027338:0.68624992370605464] [-0.98249988555908208:0.048124980926513669] [643.36249796549475:1200] [0:265.85628563574937] [648.35000101725257:1200] [0:259.80717247663353] [653.86250203450516:1200] [0:223.7598515207861] [668.83812510172527:1200] [0:171.75921480571247] [-14.127001953124999:36.524999999999999] [-37.7550048828125:5.0099975585937502] [-14.12698974609375:39.555004882812497] [-37.7550048828125:5.0099975585937502] [-1.06500244140625:39.555004882812497] [-37.7550048828125:3.2850097656249999] [502.87499745686847:1128.749979654948] [0:20.527446801291045] [508.52499898274738:1125.9416571723091] [0:51.905563836216857] [514.27625020345056:1124.8462463378905] [0:68.487270311449933] [532.2068781534831:1119.901875813802] [0:88.112497457590791] [-0.58498535156249998:1.22999267578125] [-0.64501953125:1.125] [-0.56999511718749996:1.22999267578125] [-0.64501953125:1.10999755859375] [-0.4949951171875:1.22999267578125] [-0.64501953125:0.97499999999999998]
tree_sizes=2840 2902 2884 2902 2911 2877 2925 2886 2897 2907 2914 2921 2919 2924 2916 2930 2931 2886 2929 2906 2905 2930 2912 2927 2953 2943 2927 2982 2919 2957 2923 2962 2918 2948 2941 2922 2959 2958 2907 2953 2954 2957 2911 2917 2965 2977 2998 2991 2986 2951 3009 2993 2946 2980 2979 2977 2903 2997 2997 2963 2931 2973 2918 3013 2995 2916 2959 2934 2926 2988 2969 2973 2938 2963 2951 2934 2950 2886 2944 2957 2986 2901 2942 2998 2936 2951 3003 2958 2935 2904 2992 3006 2932 2985 2970 2994 2880 2896 2974 2908 2847 3002 2910 2901 2975 3010 3000 2979 3001 2962 2958 2940 2911 2989 2921 2924 2923 2905 2928 2905 2929 2947 2940 2964 2893 2957 2918 2971 2892 2875 2870 2850 2951 2887 2891 2963 2916 3002 2970 2965 2956 2964 2961 3001 2953 2848 2794 2957 2925 2967 3002 2840 2991 2957 2890 2873 2899 3054 2939 2965 2748 3008 2934 2940 2869 2792 2958 2934 2864 2878 2915 2885 2798 3019 2984 2955 2853 2784 2848 2962 2940 2888 2950 2997 2898 2832 2932 2890 2981 2989 2903 2875 2950 2844 2903 2832 2949 2892 2923 2958

Tree=0
num_leaves=31
num_cat=0
split_feature=0 0 0 0 12 12 0 0 22 0 0 12 0 12 13 13 2 13 12 13 0 12 8 25 0 33 0 11 2 45
split_gain=1.8692e+07 3.91838e+06 3.03248e+06 1.76752e+06 875566 584284 459493 442676 332552 224506 215118 159889 159790 132932 101704 94147 93338.7 77113.8 69280.4 63412 62470.2 59647.8 55322.5 62693.9 52796.6 48277.4 46941.5 46312.5 44444.2 43945.4
threshold=14.981250286102297 32.268751144409187 6.3812499046325692 61.475000381469734 0.14000010490417483 0.090000104904174816 21.056249618530277 2.9062500000000004 13.921783876419068 9.8812499046325701 22.10624980926514 0.065000033378601094 50.156250000000007 0.25000001192092902 -0.084999895095825187 -0.17999999523162838 926.81250000000011 -0.18499946594238278 0.015000006556510926 -0.0899998664855957 11.618750095367433 0.031250000000000007 51.86541625658672 0.31893762979782575 27.13125038146973 7.0310283287276878 35.906250000000007 8.5410971244646596 935.96249389648449 -0.044094792118778932
decision_type=2 2 2 2 2 2 2 2 2 2 2 2 2 2 2 2 2 2 2 2 2 2 2 2 2 2 2 2 2 2
left_child=2 4 7 12 6 9 14 18 -5 21 16 29 15 20 -2 -3 -6 -8 -1 -11 -7 -4 -10 -24 28 -14 -17 -18 -19 -9
right_child=1 3 5 8 10 13 17 11 22 19 -12 -13 25 -15 -16 26 27 24 -20 -21 -22 -23 23 -25 -26 -27 -28 -29 -30 -31
leaf_value=8.4115777128264675 9.5738633742484893 11.199063035684269 8.9489266508691507 14.693115760114422 11.562699748707459 9.4868354402725181 10.101011976292366 8.6590698641616992 16.008618360394209 9.132506771820406 11.502061832856382 9.1117026881538532 13.571903498435017 10.280004385418106 10.003981257725357 11.751156274205432 10.434526108553634 11.062066778247384 8.6008155949326301 9.4220224241644974 9.8863268567869937 9.1927233480592463 16.742625376192819 19.708225457209117 10.969855138443819 11.827901956809313 12.252745675801803 11.197984235218229 10.437507342216458 8.8241755359760674
leaf_weight=75612 8484 1548 37207 448 1064 11733 3276 48016 74 10627 6098 11787 817 3693 15617 3101 5290 1317 25998 26259 5874 13742 94 295 3598 197 4684 935 8448 24269
leaf_count=74730 7164 808 35857 424 215 11040 2052 46144 74 9817 3357 11157 733 2882 13239 1562 4714 334 25197 25287 5325 12995 94 295 2547 121 2180 482 6910 23900
internal_value=9.18557 10.7152 8.84632 12.4126 10.3622 9.26466 10.1316 8.60044 16.6354 9.15072 11.0638 8.77019 12.0409 9.73452 9.85257 11.9113 10.6971 10.5358 8.46 9.33861 9.62011 9.01468 18.5148 18.9916 10.6424 13.2331 12.0529 10.5492 10.5217 8.7145
internal_weight=360202 65385 294817 11258 54127 109135 40740 185682 911 87835 13387 84072 10347 21300 24101 9333 7289 16639 101610 36886 17607 50949 463 389 13363 1014 7785 6225 9765 72285
internal_count=331636 47305 284331 6291 41014 103203 32246 181128 887 83956 8768 81201 5404 19247 20403 4550 5411 11843 99927 35104 16365 48852 463 389 9791 854 3742 5196 7244 70044
is_linear=0
shrinkage=1


Tree=1
num_leaves=31
num_cat=0
split_feature=0 0 0 0 12 12 0 0 22 0 0 12 0 12 2 12 13 0 23 13 0 13 13 0 12 8 16 17 11 18
split_gain=1.51464e+07 2.95142e+06 2.7059e+06 1.43169e+06 673428 490454 410188 309935 269367 185169 156868 142611 137124 130844 85378.6 84555 83916.1 74184.8 72160.3 69978.7 55870.2 55200.8 51314.4 49346.9 46080.1 44811.3 55936.1 43338.8 42840.5 39495.6
threshold=15.681250095367433 32.268751144409187 6.7187500000000009 61.475000381469734 0.12750003337860111 0.064999866485595706 3.3562499284744267 22.10624980926514 13.921783876419068 11.168750286102297 23.41874980926514 0.22249989509582521 43.068750381469734 0.031250000000000007 926.81250000000011 0.052499866485595709 -0.097500026226043687 10.856250286102297 1.6593267275541688 -0.17999999523162838 1.4562500119209292 -0.09999999701976775 -0.057499933242797847 18.681249618530277 0.11250000596046449 51.86541625658672 0.017500209808349616 -0.17999994754791257 8.7916589764734354 7.7514973878860483
decision_type=2 2 2 2 2 2 2 2 2 2 2 2 2 2 2 2 2 2 2 2 2 2 2 2 2 2 2 2 2 2
left_child=2 4 6 12 7 9 15 16 -5 22 14 17 19 -8 -6 20 -2 -7 -14 -3 -1 29 -4 -18 -15 -10 -27 -13 -16 -9
right_child=1 3 5 8 10 11 13 21 25 -11 -12 27 18 24 28 -17 23 -19 -20 -21 -22 -23 -24 -25 -26 26 -28 -29 -30 -31
leaf_value=-0.72931122413574767 0.37252029577815959 1.6611235148596002 -0.25523280457924308 4.9567905798554426 2.187644333739756 0.19564155435397829 -0.42206971024007417 1.5161365495036514 6.1407427671793346 0.20453799991330601 2.1157411711764853 2.3916033456264398 3.5918512273886209 -0.21923469150825758 1.1848286711806779 -0.33007095990799901 0.63279426060947752 0.54480979483868086 2.3438358842954039 2.4963856318592157 -0.58475987621900316 1.4413384465011807 -0.051992438570215273 1.0020392495658361 0.10701034749341454 5.9607812421075232 9.3273905912554884 0.87220780180598068 1.9003937521918877 0.89584238065876609
leaf_weight=55291 7276 1175 19665 448 1244 13435 53634 1318 74 24645 5560 195 1678 16980 5861 8408 8672 11122 640 6854 51778 7452 33732 6212 5811 58 331 5036 976 4641
leaf_count=54634 6055 585 18720 424 248 12670 51996 585 74 23115 3005 51 1364 16332 5232 7985 7403 10195 384 3071 50851 5490 32373 5148 5352 58 331 4198 460 3247
internal_value=-3.96401e-09 1.4437 -0.291263 2.90437 1.10956 0.109566 -0.516489 0.880477 6.70488 -0.0221948 1.70691 0.454768 2.56975 -0.336775 1.42563 -0.635428 0.650845 0.353782 3.24727 2.37415 -0.659407 1.25992 -0.126842 0.786903 -0.136052 8.39634 8.82543 0.928847 1.28698 1.03304
internal_weight=360202 60470 299732 11258 49212 107830 191902 35571 911 78042 13641 29788 10347 76425 8081 115477 22160 24557 2318 8029 107069 13411 53397 14884 22791 463 389 5231 6837 5959
internal_count=331636 43164 288472 6291 36873 101322 187150 27928 887 74208 8945 27114 5404 73680 5940 113470 18606 22865 1748 3656 105485 9322 51093 12551 21684 463 389 4249 5692 3832
is_linear=0
shrinkage=0.1


Tree=2
num_leaves=31
num_cat=0
split_feature=0 0 0 0 12 12 0 56 0 0 0 32 12 12 0 12 13 13 23 6 25 13 0 46 50 18 45 12 6 47
split_gain=1.23113e+07 2.72533e+06 1.88458e+06 1.26171e+06 514240 405827 274092 219543 218120 164137 151342 111831 98492.5 97427.8 86575 78144.2 69146.3 68198.6 61514.9 61354.4 53690.2 47312.8 46997.1 45553.2 66779.7 42564.3 41739.5 39119.9 37230.6 34073.4
threshold=14.481250286102297 29.91874980926514 5.6562500000000009 61.475000381469734 0.14000010490417483 0.078750038146972665 19.843750000000004 -0.089993286132812489 2.2562500238418584 9.2562499046325701 43.068750381469734 936.52812703450536 0.040000033378601078 0.25999996662139896 20.41874980926514 -0.067500066757202132 -0.12499995231628416 -0.034999895095825191 1.9990999069085456 6.8291666673289413 1.0595926248864445 -0.035000133514404293 35.906250000000007 775.27499643961607 743.85687510172534 7.8853515187899275 -0.060003662109374994 0.13500013351440432 22.632638944519893 2.41885433541754
decision_type=2 2 2 2 2 2 2 2 2 2 2 2 2 2 2 2 2 2 2 2 2 2 2 2 2 2 2 2 2 2
left_child=2 4 8 10 6 9 16 20 -1 26 15 -6 -10 19 -13 -3 -2 25 -12 -7 23 -11 27 24 29 -8 -4 -17 -19 -5
right_child=1 3 5 7 11 13 17 -9 12 21 18 14 -14 -15 -16 22 -18 28 -20 -21 -22 -23 -24 -25 -26 -27 -28 -29 -30 -31
leaf_value=-0.6147486137474607 0.16474532809053655 1.1263465724744808 -0.24987040828694129 6.0451126480102539 2.0696913293511585 0.15457468753426942 1.2253955458420407 4.1313735751005316 -0.44130901138834333 -0.019871956770283441 3.165934610517799 1.0240351981550979 -0.17592128338857158 0.8753921332504927 1.5995932016880641 1.7176238712275769 0.57699381338671873 1.0983793072721653 1.8321919483196512 0.4897100293852919 5.7531130376851785 0.1992348790276022 2.3739190475005727 11.323129675123427 4.3528004434373644 0.75392641402104177 -0.06456656785571567 2.2312228612595972 1.6081672706924426 8.7116738407551733
leaf_weight=82816 5241 874 37160 60 2290 13032 2423 364 70137 22338 1895 5485 17467 3321 4992 3499 18189 4762 423 9405 159 17636 4087 36 54 9131 18065 2574 2049 238
leaf_count=81646 4407 456 35495 60 588 12330 1537 340 68427 21438 1501 4697 16495 2613 3458 2299 15676 3977 247 8577 159 16835 1671 36 54 6911 17399 1045 1024 238
internal_value=-6.6516e-10 1.20291 -0.284135 2.43368 0.881178 0.0177381 0.711502 6.0344 -0.498392 -0.0775404 2.188 1.43664 -0.388394 0.369878 1.29827 2.03369 0.484779 1.00075 2.92255 0.295055 7.30076 0.0767951 2.11175 7.93497 7.58846 0.852799 -0.189254 1.93531 1.25174 8.17478
internal_weight=360202 68825 291377 14263 54562 120957 41795 911 170420 95199 13352 12767 87604 25758 10477 11034 23430 18365 2318 22437 547 39974 10160 388 352 11554 55225 6073 6811 298
internal_count=331636 50381 281255 8106 42275 114687 33532 887 166568 91167 7219 8743 84922 23520 8155 5471 20083 13449 1748 20907 547 38273 5015 388 352 8448 52894 3344 5001 298
is_linear=0
shrinkage=0.1


Tree=3
num_leaves=31
num_cat=0
split_feature=0 0 0 0 12 12 0 0 56 12 0 0 12 2 2 12 12 0 6 12 12 15 10 2 25 8 46 50 13 13
split_gain=9.97546e+06 2.39884e+06 1.35226e+06 1.02199e+06 479011 307428 201635 186567 177830 147762 124473 99287.4 95242.9 82624.4 67087.6 64489.3 63233.4 61111.1 59068.1 56631.3 47910.1 46880.5 44185.3 46237.4 43489 39511.1 36898.1 54091.6 36057.1 35394.9
threshold=13.556250095367433 29.91874980926514 5.2187500000000009 61.475000381469734 0.065000534057617201 0.047499993443489076 20.41874980926514 18.94375038146973 -0.089993286132812489 0.017500013113021854 38.881250381469734 8.6437497138977069 0.16875000000000004 926.81250000000011 856.61251831054699 0.23249979019165043 0.077500033378601077 1.5187500119209292 6.3786458108160238 0.11000013351440431 0.37375028133392341 -0.29000005722045891 11.789583306511245 935.96249389648449 1.0595926248864445 3.261250006159147 775.27499643961607 743.85687510172534 -0.18499946594238278 -0.19999995231628417
decision_type=2 2 2 2 2 2 2 2 2 2 2 2 2 2 2 2 2 2 2 2 2 2 2 2 2 2 2 2 2 2
left_child=2 4 9 10 7 11 13 28 24 17 16 -4 18 -6 -12 -8 -3 -1 -7 25 -15 -16 23 -14 26 -11 27 -5 -2 -9
right_child=1 3 5 8 6 12 15 29 -10 19 14 -13 22 20 21 -17 -18 -19 -20 -21 -22 -23 -24 -25 -26 -27 -28 -29 -30 -31
leaf_value=-0.60383072629314916 -0.016020788281289857 1.4435112010765772 -0.22208946134211283 7.3573038165201288 1.5753001674387954 -0.014593901036477489 1.2503769456786498 0.47723976896106574 3.7182361539166706 -0.43657481024096106 3.5775915216191025 -0.003263111261771492 1.1854998692088592 0.70938860163679196 1.4412748857514346 1.779276833247776 1.983945341620277 -0.45759724703995919 0.26566810578813321 0.013390571774581337 1.4577714535692574 2.4081972861264509 1.0081115100839828 0.31985388188956826 5.1778017631866646 -0.23720730260662429 10.19081620110406 3.9175202440332484 0.37334839771155365 0.8525004310095291
leaf_weight=50136 2743 3812 48161 298 1390 14623 7174 3135 364 21986 434 36410 684 11846 585 3397 5011 66460 15482 4909 922 3510 1468 6303 159 18144 36 54 17888 12678
leaf_count=49515 2298 2413 46091 298 304 14002 4992 2037 340 21572 396 35096 198 10639 326 1791 2126 65317 14330 4594 618 1958 1099 6209 159 17118 36 54 15917 9793
internal_value=3.35695e-10 1.02246 -0.270856 2.19031 0.750171 -0.0211837 1.08988 0.519665 5.43096 -0.461053 1.9692 -0.127879 0.212824 0.843138 2.39536 1.42034 1.75045 -0.520477 0.129536 -0.307216 0.763431 2.27007 0.509382 0.404597 6.57068 -0.346435 7.14147 6.82961 0.32158 0.778103
internal_weight=360202 75436 284766 14263 61173 123131 24729 36444 911 161635 13352 84571 38560 14158 4529 10571 8823 116596 30105 45039 12768 4095 8455 6987 547 40130 388 352 20631 15813
internal_count=331636 56495 275141 8106 48389 117025 18344 30045 887 158116 7219 81187 35838 11561 2680 6783 4539 114832 28332 43284 11257 2284 7506 6407 547 38690 388 352 18215 11830
is_linear=0
shrinkage=0.1


Tree=4
num_leaves=31
num_cat=0
split_feature=0 0 0 0 12 12 0 0 56 0 0 12 32 18 8 17 13 12 13 2 13 9 2 49 0 25 20 25 21 21
split_gain=8.11618e+06 1.6863e+06 1.4111e+06 707332 352485 288995 287229 146035 144042 130539 95938.2 84605.7 74447 60703.4 58748.8 58584.6 58495.5 57150.5 54130.1 48800.1 44418.9 41339.1 37844.7 37598.1 37460.1 35226.1 35131.7 36947.2 31710.4 31633.8
threshold=16.843750000000004 7.3437500000000009 33.968750000000007 61.475000381469734 0.10874958038330079 0.13500013351440432 3.6062499284744267 11.69374990463257 -0.089993286132812489 22.493749618530277 24.431249618530277 0.031250000000000007 896.57187398274743 12.807551980018617 19.000729274749762 -0.31125011444091794 -0.0037504196166992187 0.039999866485595711 -0.065000006556510906 935.96249389648449 -0.0899998664855957 3.5430813755280486 943.23751831054699 6.5782750914430048 50.156250000000007 1.0595926248864445 7.6110026141007756 1.5712596961886673 1.7572386671455422 2.2742593428455282
decision_type=2 2 2 2 2 2 2 2 2 2 2 2 2 2 2 2 2 2 2 2 2 2 2 2 2 2 2 2 2 2
left_child=1 6 4 12 9 7 17 16 25 20 19 29 23 14 -7 -14 -3 28 -9 -6 -2 -13 -20 -4 -17 -5 -11 -28 -1 -8
right_child=2 5 3 8 10 13 11 18 -10 26 -12 21 15 -15 -16 24 -18 -19 22 -21 -22 -23 -24 -25 -26 -27 27 -29 -30 -31
leaf_value=-0.50362456134774936 0.30507868494099177 -0.094111695411267071 2.3998554635399851 6.4273270567667851 1.6239774658475803 0.45138295885650753 -0.29802345905614097 0.073303604478068704 3.3464126278083408 1.2580095600169727 1.5993421255909723 -0.12488945293640691 1.0069264687355233 1.2127415796158791 1.5670720896282333 1.8744616203170776 0.12943850703078513 -0.26678561952390362 0.96022035402776018 0.97319754518309409 0.64092662675002554 0.2213260932649381 0.30955074058667709 3.7750403011969804 2.7660491326351764 4.6600215048160196 0.98940876482413143 0.57089077926339571 -0.32404026243311423 0.26336745705014486
leaf_weight=97366 6259 39815 796 388 1378 11592 56174 12283 364 2765 6155 21742 745 1313 492 6352 16579 13430 938 7034 10620 4099 19009 265 509 159 6499 3123 10937 1022
leaf_count=96025 5110 38501 591 388 289 10982 54500 11104 340 1801 3250 20833 375 332 204 2823 15418 12854 398 5771 8872 3685 18046 257 435 159 4370 2450 10712 761
internal_value=-4.34955e-10 -0.19806 1.13765 2.23723 0.89738 0.13409 -0.363545 0.0686522 4.88786 0.697314 1.29932 -0.220145 1.95862 0.566975 0.496808 1.84915 -0.0283912 -0.461361 0.238453 1.0798 0.516389 -0.0699714 0.340148 2.74333 1.94061 5.91361 0.943849 0.853571 -0.485489 -0.287992
internal_weight=360202 306791 53411 9578 43833 102021 204770 88624 911 29266 14567 83037 8667 13397 12084 7606 56394 121733 32230 8412 16879 25841 19947 1061 6861 547 12387 9622 108303 57196
internal_count=331636 294355 37281 5368 31913 94985 199370 83467 887 22603 9310 79779 4481 11518 11186 3633 53919 119591 29548 6060 13982 24518 18444 848 3258 547 8621 6820 106737 55261
is_linear=0
shrinkage=0.1


Tree=5
num_leaves=31
num_cat=0
split_feature=0 0 0 0 12 12 0 58 0 0 12 2 0 12 12 8 2 13 18 17 13 2 2 45 8 7 25 7 50 12
split_gain=6.59189e+06 1.48938e+06 989263 711919 269579 234261 136805 117034 116981 114234 92916.1 71122.1 60343.4 59294 58659.7 56694.3 54656 51374.1 49495.1 48124.8 44476 38837.5 36662.2 36566.6 35127.8 31818.7 31767.7 31044.7 54660.2 29520
threshold=14.31874990463257 28.018750190734867 5.3687500953674325 61.475000381469734 0.21250001192092896 0.027500104904174809 18.681249618530277 -0.090008544921874975 35.906250000000007 2.0062500238418584 0.15249998569488529 935.96249389648449 8.9562497138977069 0.077500033378601077 0.077500033378601077 7.4885416646798459 856.61251831054699 -0.017499947547912596 11.264648477236433 -0.10500000715255736 -0.29125003814697265 926.81250000000011 935.96249389648449 -0.059991455078124992 18.275416739781701 9.5701224789145893 1.0595926248864445 11.422503590503679 743.85687510172534 0.032500267028808601
decision_type=2 2 2 2 2 2 2 2 2 2 2 2 2 2 2 2 2 2 2 2 2 2 2 2 2 2 2 2 2 2
left_child=2 4 9 8 6 12 17 26 13 -1 15 -8 -4 -3 23 -7 -10 -2 29 -12 -18 -6 -21 -11 -23 -16 27 28 -5 -13
right_child=1 3 5 7 21 10 11 -9 16 14 19 18 -14 -15 25 -17 20 -19 -20 22 -22 24 -24 -25 -26 -27 -28 -29 -30 -31
leaf_value=-0.46138168367286791 0.23488507514586546 1.0352329240768128 -0.18799165293015527 6.1038078389269241 1.6819573402673882 -0.025414008732530649 1.1952484280436855 3.1516926499174058 2.9206601196702398 -0.37214077020356678 1.195848727559313 0.55788738870170496 -0.0049270412364149545 1.5334608736401443 -0.049645504463220157 0.21092215828076366 0.95336329308206746 0.54176323440821983 0.2138247837953462 0.96608494287927549 1.8581505100112101 0.93611547407256934 0.3069546019846523 -0.23340436126858763 1.5325439742974398 2.2069077090611535 4.1883141334742717 7.827714832850865 2.4006315395236015 0.81577371173581081
leaf_weight=76066 14504 4446 43661 235 1329 19783 2528 412 443 50036 755 8596 30644 5162 7678 20846 601 8744 2476 930 5658 4128 9112 30626 1298 63 146 70 48 9178
leaf_count=75049 12533 2960 41726 235 277 19198 640 388 403 48236 474 7033 29726 2528 7282 19127 348 7390 1927 273 2835 3497 8793 30275 540 9 146 70 48 7670
internal_value=5.89583e-10 0.871014 -0.210106 1.67854 0.60754 0.00106199 0.520961 4.39907 1.52659 -0.371537 0.165139 0.695135 -0.112494 1.30291 -0.29423 0.0958458 1.84725 0.350308 0.632701 0.425886 1.77127 1.19746 0.367997 -0.319465 1.07879 -0.0312806 5.42898 5.94211 5.47571 0.691053
internal_weight=360202 70002 290200 17221 52781 125731 46026 911 16310 164469 51426 22778 74305 9608 88403 40629 6702 23248 20250 10797 6259 6755 10042 80662 5426 7741 499 353 283 17774
internal_count=331636 51468 280168 9961 41507 119317 37193 887 9074 160851 47865 17270 71452 5488 85802 38325 3586 19923 16630 9540 3183 4314 9066 78511 4037 7291 499 353 283 14703
is_linear=0
shrinkage=0.1


Tree=6
num_leaves=31
num_cat=0
split_feature=0 0 0 0 12 12 0 0 56 12 10 14 2 2 0 13 11 45 32 21 20 18 12 10 0 2 23 0 45 10
split_gain=5.36116e+06 1.36871e+06 667197 593155 254827 172907 125461 109735 96636.1 71226.4 63018.2 55986.2 53019.1 50408.8 48804.3 48333.4 47081.8 46119.2 45525.7 39754.2 36246 35623.2 31955.6 29729.6 29215.5 28700.2 27328.8 26946.4 26059.3 25279.6
threshold=13.056250095367433 27.13125038146973 4.6437499523162851 61.475000381469734 0.17000026702880863 0.027500104904174809 18.681249618530277 35.906250000000007 -0.089993286132812489 0.017500013113021854 8.8596354007720972 0.13500013351440432 935.96249389648449 926.81250000000011 50.156250000000007 -0.12499995231628416 7.5872869561302272 -0.090008544921874975 953.70313008626306 1.6692127081674115 7.7300781144036197 11.43033854166667 -0.067500066757202132 3.1270833256344006 1.2062500119209292 948.63748168945324 1.9198988212783072 8.2312502861022967 0.13500366210937503 19.718750075499219
decision_type=2 2 2 2 2 2 2 2 2 2 2 2 2 2 2 2 2 2 2 2 2 2 2 2 2 2 2 2 2 2
left_child=2 4 9 7 6 17 15 11 -5 24 18 20 -8 -6 22 -2 -15 27 -7 -12 -3 -14 -9 -11 -1 -17 -22 -4 -16 -27
right_child=1 3 5 8 13 10 12 14 -10 23 19 -13 21 16 28 25 -18 -19 -20 -21 26 -23 -24 -25 -26 29 -28 -29 -30 -31
leaf_value=-0.45839228630874224 0.022424471381444003 1.3310397160988929 -0.24888377358059463 4.7993376036448714 1.4353689515234382 0.43669635915600558 1.0494414301430435 0.8045011660748852 2.6966021277256065 -0.32860191440498809 0.18810329964789307 1.3869853820425544 0.5865328733203149 0.71408903621795239 2.5474416652129426 0.7436093530136455 1.2647469482582148 -0.031090318181990085 -0.014984630516106368 0.60604913455523712 0.88089754554638822 0.13658805526111825 1.6240869266643305 -0.15430185397684459 -0.35220216314629954 0.27381740372299024 0.13298178297294452 -0.10323531343162191 1.2560730028955431 0.62564031440032775
leaf_weight=42709 6089 1669 31233 547 1766 2406 2277 524 364 18579 15689 5253 16134 6391 821 1622 2051 28156 30764 2662 3611 1975 5164 20676 65864 20773 565 21410 193 2265
leaf_count=42196 5216 859 29910 547 356 1290 568 284 340 18174 14438 2596 13450 5675 731 749 1063 27220 30395 2120 2555 1561 2448 19533 64811 19666 392 20816 123 1554
internal_value=7.07382e-10 0.721703 -0.206231 1.47039 0.493338 -0.0431142 0.402273 1.34301 3.95917 -0.352236 0.10004 1.15006 0.594646 0.94951 1.66252 0.274733 0.847872 -0.134396 0.0177782 0.248731 0.937136 0.537461 1.54858 -0.236796 -0.393974 0.337032 0.779707 -0.189648 2.30165 0.308407
internal_weight=360202 80054 280148 18711 61343 132320 51135 17800 911 147828 51521 11098 20386 10208 6702 30749 8442 80799 33170 18351 5845 18109 5688 39255 108573 24660 4176 52643 1014 23038
internal_count=331636 60733 270903 10875 49858 126189 42764 9988 887 144714 48243 6402 15579 7094 3586 27185 6738 77946 31685 16558 3806 15011 2732 37707 107007 21969 2947 50726 854 21220
is_linear=0
shrinkage=0.1


Tree=7
num_leaves=31
num_cat=0
split_feature=0 0 0 2 12 12 0 49 0 21 12 13 0 0 13 0 2 21 7 8 13 12 2 10 51 37 3 8 18 20
split_gain=4.34714e+06 928111 757851 376433 206901 169005 163239 93091.5 76119.7 63235.4 61692.8 54356.9 54331.3 53628.5 45775.2 45074.2 43091.3 36432.8 36157.5 34754.3 34186.5 34144.3 32541.1 32463.5 33846.2 31211.4 30563.1 29127.4 27993 24760.2
threshold=16.843750000000004 7.5562500953674325 33.968750000000007 856.61251831054699 0.065000534057617201 0.065000534057617201 3.2312499284744267 6.246160291947306 22.91874980926514 2.2742593428455282 0.33999986648559571 -0.035000133514404293 12.681250095367433 24.431249618530277 -0.29125003814697265 50.156250000000007 957.33749389648449 1.6308441284051101 7.850848150930819 12.203020858764651 -0.070000052452087388 0.25000001192092902 926.81250000000011 49.597708241144822 16.112001769470982 23.497096301563737 854.88748168945324 5.7859374821186078 8.6423828005790728 8.5401692456669291
decision_type=2 2 2 2 2 2 2 2 2 2 2 2 2 2 2 2 2 2 2 2 2 2 2 2 2 2 2 2 2 2
left_child=1 6 4 7 13 12 17 -4 21 11 16 -8 20 26 -5 -16 -7 -1 -11 -18 -3 -6 -10 25 -25 -9 -2 -13 -28 -24
right_child=2 5 3 14 8 10 9 23 22 18 -12 27 -14 -15 15 -17 19 -19 -20 -21 -22 -23 29 24 -26 -27 28 -29 -30 -31
leaf_value=-0.36976634898188032 0.6043141706669668 -0.14901179399248374 2.2546295143398845 0.6623782354616683 0.60028229368994046 0.65571020692476611 -0.28469715204218343 1.6785329371344213 1.496979019124824 0.1845640733790101 0.89638370306624937 -0.17642510859103774 0.16693259526505932 0.69648167509966408 1.3902715126275085 2.179016937079131 0.17607742863362197 -0.20202879724832018 1.3352824708381401 0.48275842707580252 0.027222184787072629 1.0460295016873964 1.1433181833553199 4.1360979203697594 6.3672800890604657 3.8893612538614586 0.49487130399089169 -0.03130534031374254 0.18683652681908516 0.78240270923910971
leaf_weight=96032 4099 16291 506 764 7654 2702 33799 86 1660 2140 1712 40465 19445 6859 6795 811 19411 14967 313 4564 33937 2216 5203 278 90 248 4470 21013 8677 2995
leaf_count=94385 2416 15481 407 434 6209 1215 32764 78 433 1870 1203 38926 17672 4783 3116 717 18961 14706 79 3970 32659 1406 2976 278 90 248 3899 20464 7588 2203
internal_value=-4.79378e-10 -0.144952 0.832597 1.63842 0.656515 0.108806 -0.264168 3.28862 0.896671 -0.169922 0.31447 -0.182828 0.0250067 0.459967 1.40026 1.47437 0.277126 -0.347149 0.331394 0.234459 -0.0299377 0.700361 1.09322 4.03391 4.68177 3.32011 0.365902 -0.126824 0.291569 1.01146
internal_weight=360202 306791 53411 9578 43833 98062 208729 1208 19728 97730 28389 95277 69673 24105 8370 7606 26677 110999 2453 23975 50228 9870 9858 702 368 334 17246 61478 13147 8198
internal_count=331636 294355 37281 5368 31913 91161 203194 1101 13227 94103 25349 92154 65812 18686 4267 3833 24146 109091 1949 22931 48140 7615 5612 694 368 326 13903 59390 11487 5179
is_linear=0
shrinkage=0.1


Tree=8
num_leaves=31
num_cat=0
split_feature=0 0 0 0 12 12 32 2 2 24 10 12 0 0 8 0 23 0 14 35 13 2 13 46 52 55 45 12 16 45
split_gain=3.53361e+06 906854 444065 386807 184038 125434 83428.6 75468.1 73876.1 67076 67027.1 58156.4 54861.4 51753.2 38773.9 37201.2 36404 36344.2 31290.7 30231.2 30013.4 29423.9 29163.8 27744.4 33403.8 32022.3 26508.4 26165.7 25794.3 24773.3
threshold=13.056250095367433 28.018750190734867 4.7062499523162851 61.475000381469734 0.060000133514404301 0.090000104904174816 936.52812703450536 926.81250000000011 1079.5125122070315 13.772109353542328 17.550260456403098 0.064999866485595706 8.3187499046325701 18.431249618530277 12.479999971389772 50.156250000000007 1.8006467286859764 1.4562500119209292 0.40124988555908209 14.919538859742159 -0.31499958038330073 943.23751831054699 -0.097500026226043687 775.27499643961607 747.30781122843439 -0.14250488281249998 -0.16500854492187497 0.26749994754791268 0.41374969482421881 0.030666115009679206
decision_type=2 2 2 2 2 2 2 2 2 2 2 2 2 2 2 2 2 2 2 2 2 2 2 2 2 2 2 2 2 2
left_child=2 4 11 7 13 12 19 18 16 -5 27 17 26 -2 21 -10 -9 -1 -3 -6 -12 -7 -14 24 25 -11 -4 -8 -22 -19
right_child=1 3 5 9 6 14 10 8 15 23 20 -13 22 -15 -16 -17 -18 29 -20 -21 28 -23 -24 -25 -26 -27 -28 -29 -30 -31
leaf_value=-0.36492966431220997 0.1653396992418571 1.4534317751113397 -0.19848949382306494 2.4387820745974174 0.77142756438454274 0.56936123914617409 0.38130865025841848 0.84981359838651316 1.1405737755920748 4.969404383242388 -0.58235262954395084 -0.060130623034438502 -0.14228536827351765 0.40792722599178766 0.6120672928593357 2.0896045189256207 0.17810118489983887 -0.294314504713235 2.3617367364354513 1.3578812214976563 0.77970444920518822 0.10988712050510484 0.048067979092818958 6.8146356582641605 2.1071134468931478 2.5667253500794711 -0.068370632046607441 0.72379141091981214 1.4212212177786887 -0.17181412729898027
leaf_weight=55910 21610 2019 33291 490 1760 1511 13961 3368 8962 231 149 10647 10342 14829 1961 433 1061 59882 467 1756 5404 17958 36296 36 81 73 29558 2655 709 22792
leaf_count=55253 19207 1032 31860 466 595 602 13200 2024 4506 231 50 10053 9685 11476 1511 385 733 58235 394 293 3398 17578 34973 36 81 73 28622 2322 231 22531
internal_value=-2.48649e-10 0.585921 -0.16743 1.22882 0.409718 -0.0330112 0.610808 1.11681 1.02559 3.23415 0.54111 -0.285353 -0.0763164 0.264062 0.188237 1.18431 0.6889 -0.302656 1.62406 1.06432 0.819929 0.145547 0.00585703 4.15987 3.91164 4.39245 -0.137294 0.436033 0.854109 -0.260543
internal_weight=360202 80054 280148 17221 62833 130917 26394 16310 13824 911 22878 149231 109487 36439 21430 9395 4429 138584 2486 3516 6262 19469 46638 421 385 304 62849 16616 6113 82674
internal_count=331636 60733 270903 9961 50772 124831 20089 9074 7648 887 19201 146072 105140 30683 19691 4891 2757 136019 1426 888 3679 18180 44658 421 385 304 60482 15522 3629 80766
is_linear=0
shrinkage=0.1


Tree=9
num_leaves=31
num_cat=0
split_feature=0 0 0 0 12 0 2 13 13 0 21 13 13 21 49 21 2 8 2 12 32 18 13 2 7 10 37 9 18 25
split_gain=2.87977e+06 685132 477111 210030 131254 115582 101810 76386.8 64578.5 60628.5 46458.3 40834.2 40515.7 36394.8 34110.7 33639.4 33554.1 32572.2 32556 31202.3 28276 27097 25070.7 24257.9 23954.1 23656.9 26243 22986.9 22939.8 24716.8
threshold=17.931249618530277 7.7187500000000009 50.156250000000007 26.29374980926514 0.13500013351440432 3.8062499761581425 856.61251831054699 -0.022500133514404292 -0.025000004470348353 10.968750000000002 2.2742593428455282 -0.050000035762786853 -0.027499866485595697 2.4402954065216709 7.263845533916828 0.77451889357508719 935.96249389648449 19.000729274749762 926.81250000000011 0.012499999627470972 927.53750356038415 8.4190104206403102 -0.019999933242797849 1079.5125122070315 4.2972458933293645 49.597708241144822 23.968739052154067 10.800509840534675 7.8853515187899275 1.3518892378739242
decision_type=2 2 2 2 2 2 2 2 2 2 2 2 2 2 2 2 2 2 2 2 2 2 2 2 2 2 2 2 2 2
left_child=1 5 3 7 9 13 14 28 15 22 11 -7 21 19 -4 -5 -9 18 -6 -1 -10 -11 -3 -17 -12 26 -16 -15 -2 -30
right_child=2 4 6 8 17 10 -8 16 20 12 24 -13 -14 27 25 23 -18 -19 -20 -21 -22 -23 -24 -25 -26 -27 -28 -29 29 -31
leaf_value=-0.32303869289358739 0.58413285856347719 -0.08933330246217086 2.2611885327584935 0.95367116147860664 0.80282033676401066 -0.25067577815036901 1.5706057093584409 1.0079998929993024 1.492932312968734 0.23495217957424069 0.12495505065523348 -0.090926982284874669 0.26228538792650791 -0.0011165042135232413 1.3802056917723489 0.35429159176605673 0.59036696791004117 1.0758433439258195 0.29895553260267493 -0.2211596837480789 1.0352927957240521 0.0044003627934039342 0.064453185707338947 0.78291828985638678 0.87941532735399341 4.1311204780526714 3.5011324946598346 1.1576647060585548 0.4181638535761148 0.13336092373485539
leaf_weight=73131 2996 25551 357 4362 1434 21762 1003 2391 1686 6884 1362 60444 16911 2882 85 2523 9845 652 12125 51045 6777 19647 18117 2770 609 294 186 182 6074 6115
leaf_count=72429 2285 24633 343 2405 336 21042 839 524 787 6326 1299 58203 15354 2765 79 1715 8162 274 11405 49686 3556 18027 17091 1555 213 294 186 83 4612 5128
internal_value=-1.96395e-10 -0.110153 0.725796 0.66061 0.103651 -0.212619 2.26786 0.486043 0.924812 0.0576801 -0.121713 -0.133217 0.141323 -0.272758 3.02638 0.748055 0.671975 0.385443 0.352244 -0.281159 1.12646 0.0642217 -0.0255303 0.578606 0.358068 3.50987 2.8359 0.0677145 0.336219 0.275283
internal_weight=360202 312738 47464 45539 101321 211417 1925 27421 18118 87110 84177 82206 43442 127240 922 9655 12236 14211 13559 124176 8463 26531 43668 5293 1971 565 271 3064 15185 12189
internal_count=331636 299166 32470 30729 93446 205720 1741 20711 10018 81431 80757 79245 39707 124963 902 5675 8686 12015 11741 122115 4343 24353 41724 3270 1512 559 265 2848 12025 9740
is_linear=0
shrinkage=0.1


Tree=10
num_leaves=31
num_cat=0
split_feature=0 0 0 0 12 12 0 12 24 0 12 13 18 12 0 10 10 9 12 13 8 45 13 23 58 46 52 55 6 23
split_gain=2.34216e+06 509804 391006 216601 133769 95458.9 70919 69071.2 46738.3 45431.5 42460.6 38191 37942.3 34703.9 36319.9 31490.3 29024.7 27879.3 25752.1 25367.9 24813 23716.4 23130.1 22724.7 22172.8 21908.4 23164.2 23982.7 19683.7 18390.8
threshold=14.981250286102297 32.268751144409187 6.2437500953674325 61.475000381469734 0.16875000000000004 0.047500133514404304 22.493749618530277 0.077500033378601077 13.772109353542328 1.9562500119209292 0.35000009536743165 -0.19999995231628417 9.0275154727878011 -0.0074999332427978507 43.068750381469734 18.928906261920933 8.8596354007720972 3.2143242495568045 0.37375028133392341 -0.10750005245208739 9.1571875095367457 -0.044094792118778932 -0.15749979019165036 1.2629187391842269 -0.089999389648437483 775.27499643961607 747.30781122843439 -0.14250488281249998 14.771180563502844 1.3395843358274251
decision_type=2 2 2 2 2 2 2 2 2 2 2 2 2 2 2 2 2 2 2 2 2 2 2 2 2 2 2 2 2 2
left_child=2 4 7 13 6 12 11 9 29 -1 16 -2 20 23 -15 -13 24 -9 28 -14 -4 -11 -8 -3 -7 26 27 -10 -6 -5
right_child=1 3 5 8 18 10 22 17 25 21 -12 15 19 14 -16 -17 -18 -19 -20 -21 -22 -23 -24 -25 -26 -27 -28 -29 -30 -31
leaf_value=-0.28615280850892694 -0.086003984631325789 0.93795318296491714 -0.048044965392092728 2.3053899175071337 0.517844121735339 0.41536854599368289 0.29590377579633392 -0.052262878104220478 4.083832120688963 -0.21811594944915666 0.71710736957709942 0.22462117118310482 -0.22345040555246831 1.0036556678334538 1.5148558620129313 0.47818715318851518 0.24455552214631882 0.3345925115040867 1.031470648856734 -0.051427541677920088 0.14115019449159652 -0.11488936408053177 0.59599430559042865 0.22972806168664317 0.031086473533989807 5.7638090451558437 1.6814343856348668 2.0045258604296268 0.82472188148685521 0.85544441973692509
leaf_weight=73081 3065 1043 12758 376 4838 1630 3404 9405 231 63476 1313 19944 11230 6753 1750 6492 14875 2323 2240 36227 15180 34275 10464 801 19044 36 81 73 3680 114
leaf_count=72172 2375 647 12749 374 3855 874 2087 9108 231 61127 934 18018 10573 2922 1384 4258 13471 1945 1070 34706 14190 33816 7403 451 18666 36 81 73 1948 92
internal_value=5.6559e-10 0.541468 -0.120088 1.15373 0.414122 0.026775 0.335825 -0.210394 2.63198 -0.226511 0.158656 0.248149 -0.0377042 1.02358 1.10887 0.28689 0.13803 0.0243627 0.729764 -0.0921342 0.0547535 -0.181921 0.522335 0.630313 0.0613844 3.40472 3.18413 3.58453 0.650423 1.96806
internal_weight=360202 65385 294817 11258 54127 112257 43369 182560 911 170832 36862 29501 75395 10347 8503 26436 35549 11728 10758 47457 27938 97751 13868 1844 20674 421 385 304 8518 490
internal_count=331636 47305 284331 6291 41014 106163 34141 178168 887 167115 33945 24651 72218 5404 4306 22276 33011 11053 6873 45279 26939 94943 9490 1098 19540 421 385 304 5803 466
is_linear=0
shrinkage=0.1


Tree=11
num_leaves=31
num_cat=0
split_feature=0 0 0 0 12 12 0 2 18 18 2 12 21 10 13 18 9 37 13 0 18 6 32 3 13 17 10 55 49 35
split_gain=1.91204e+06 491924 234558 192977 125721 77623.8 71038.2 42359.7 39839.2 39314 38460.4 38441 36287.7 33394 31337.2 27408.6 25875.2 24015.9 23756.7 22981.3 21059.7 19949.9 19632.6 26331.3 18958.1 19369.9 18585.1 17294.3 17210.1 16817.5
threshold=12.94374990463257 29.91874980926514 4.5187499523162851 61.475000381469734 0.21250001192092896 0.015000104904174806 20.75625038146973 975.41250610351574 10.311458388964338 11.902148405710857 895.83749389648449 0.19750013351440432 1.6496696635662469 6.9552604026471583 -0.18749995231628416 15.607682228088381 10.053069724150722 19.148747149367697 -0.18499946594238278 0.90625000000000011 8.9453126192092913 40.968749735090476 927.53750356038415 945.56250000000011 -0.084999895095825187 -0.25250010490417474 20.747083270549776 0.014996337890625001 16.202371338447012 23.335333787352535
decision_type=2 2 2 2 2 2 2 2 2 2 2 2 2 2 2 2 2 2 2 2 2 2 2 2 2 2 2 2 2 2
left_child=2 4 12 10 6 20 7 29 -9 -5 17 13 15 -7 -12 19 27 -3 -8 -1 -4 -16 -6 -24 -15 -26 -20 -14 -17 -2
right_child=1 3 5 9 22 11 18 8 -10 -11 14 -13 16 24 21 28 -18 -19 26 -21 -22 -23 23 -25 25 -27 -28 -29 -30 -31
leaf_value=-0.30701785241548585 0.37919630681282956 1.1345475959839657 -0.023706977807985072 1.3179957804619336 1.0049808158046691 -0.055155345695399573 0.16816272759604411 0.21268823163860323 -0.029028204054845425 2.7794742534599686 0.4418637452226678 0.29502093859282125 -0.17093217374180888 -0.12530518598451162 0.83829449948175339 0.078626185629774192 0.59347634631229329 2.134399388091905 0.3860580787124902 -0.21074393181251561 -0.14234321285746529 1.3510772827516602 0.45234627764280433 0.8593650429867653 1.0326979458590091 0.11329372686755652 0.61151455822228096 0.039533805589239968 1.3544665399905855 0.87435427508248798
leaf_weight=34152 4195 946 22140 256 1507 28103 2982 26124 9227 655 1945 5756 11882 3516 9313 1643 552 322 9078 90494 46158 826 4214 2552 231 28563 6122 5815 113 820
leaf_count=33981 2409 599 21483 232 365 27176 1929 24577 8192 655 972 5061 11774 3156 4706 374 318 308 7826 89522 44457 634 3470 1475 114 26889 3170 5626 14 172
internal_value=-3.28701e-11 0.427466 -0.124179 0.960595 0.313669 -0.0291005 0.262108 0.188181 0.149598 2.36878 0.864515 0.0480905 -0.212564 0.0245636 0.809538 -0.231595 -0.0807457 1.38845 0.426234 -0.237122 -0.103885 0.88007 0.678568 0.605866 0.0939025 0.12067 0.476864 -0.101776 0.160728 0.460159
internal_weight=360202 81084 279118 14263 66821 134467 58548 40366 35351 911 13352 66169 144651 60413 12084 126402 18249 1268 18182 124646 68298 10139 8273 6766 32310 28794 15200 17697 1756 5015
internal_count=331636 61691 269945 8106 53585 128336 48275 35350 32769 887 7219 62396 141609 57335 6312 123891 17718 907 12925 123503 65940 5340 5310 4945 30159 27003 10996 17400 388 2581
is_linear=0
shrinkage=0.1


Tree=12
num_leaves=31
num_cat=0
split_feature=0 0 0 12 12 13 2 0 10 2 0 18 21 10 12 8 21 13 10 53 23 32 22 2 2 3 18 11 7 59
split_gain=1.5533e+06 392846 255894 109919 86505 72835.3 55244.2 53571.7 44685.2 36430.1 34470.1 33227.6 32864.3 30844.3 29714.4 27894.7 24595.6 24207.7 22332.7 21884.5 20518.6 20164.6 19779.5 19535 18827.6 17023.1 16896.9 16680.1 16943.4 15690.1
threshold=18.181249618530277 8.8937497138977069 50.156250000000007 0.057500267028808595 0.015000033378601075 -0.0037504196166992187 856.61251831054699 32.268751144409187 5.9381250218177843 943.23751831054699 27.13125038146973 8.3977864782015512 1.6692127081674115 5.7808333451549219 0.26749994754791268 14.496249965826673 0.77451889357508719 -0.16749994754791256 20.747083270549776 23.759419983675951 2.0367141927367904 896.57187398274743 8.9422916769981402 943.23751831054699 1113.9375000000002 854.88748168945324 8.7449219226837176 1.1552658099792701 7.850848150930819 -0.04500122070312499
decision_type=2 2 2 2 2 2 2 2 2 2 2 2 2 2 2 2 2 2 2 2 2 2 2 2 2 2 2 2 2 2
left_child=1 4 3 10 13 11 19 14 21 -7 -2 18 -10 -1 23 -11 -12 -13 -3 -4 -18 -6 -8 -5 -25 -19 -15 -14 -29 -30
right_child=2 5 6 7 8 9 22 -9 12 15 16 17 27 26 -16 -17 20 25 -20 -21 -22 -23 -24 24 -26 -27 -28 28 29 -31
leaf_value=-0.22234616247069008 0.24235518110712251 0.12373257296095377 1.5339308540532857 0.77152636163800903 0.49741979578005835 0.58095215991285076 1.7106210722607011 0.91385262302597237 -0.014092295241634604 0.15429162301330068 0.70588241112341121 -0.20418202044713707 2.0125901016924117 -0.033676339889535771 0.79824249386080059 0.43844354356569237 0.43696762219121021 0.18882275688184699 0.52750783269929957 2.5702728755265767 -0.20485103183466524 -0.12798302427007111 0.8005100805773484 0.3359185621319431 0.60530749454343491 -0.0087681181383423359 -0.16360123920649047 0.18806824819735854 0.12889260783871656 1.3289500433569172
leaf_weight=102515 14540 13619 304 2026 521 2762 392 5599 25633 21953 3390 5524 54 14189 3953 4100 3007 5160 1523 618 597 49276 611 7119 4082 28130 33984 4572 186 263
leaf_count=101291 11465 13554 290 512 134 976 372 2437 24499 20930 1986 4858 18 13631 2050 3313 1958 4134 785 612 380 48034 467 5963 2986 27210 32436 4167 105 83
internal_value=9.95263e-11 -0.0796918 0.541121 0.492089 -0.146622 0.107256 1.66983 0.645221 -0.0629346 0.235619 0.330104 0.0387035 0.0319392 -0.191332 0.557674 0.199009 0.512526 -0.0103113 0.164345 2.22857 0.330651 -0.12144 1.15621 0.485778 0.434092 0.0218588 -0.125333 0.264437 0.245636 0.831822
internal_weight=360202 313964 46238 44313 231193 82771 1925 22779 80505 28815 21534 53956 30708 150688 17180 26053 6994 38814 15142 922 3604 49797 1003 13227 11201 33290 48173 5075 5021 449
internal_count=331636 300158 31478 29737 224398 75760 1741 13948 77040 25219 15789 50541 28872 147358 11511 24243 4324 36202 14339 902 2338 48168 839 9461 8949 31344 46067 4373 4355 188
is_linear=0
shrinkage=0.1


Tree=13
num_leaves=31
num_cat=0
split_feature=0 0 0 0 2 13 13 18 3 11 0 45 35 33 24 12 8 13 45 20 10 25 10 21 16 39 23 13 0 18
split_gain=1.27106e+06 343732 153405 150169 77393.5 53859.7 52944.9 52745.9 41390.2 38840 34606.9 30766.6 30443.7 29092.1 28399.2 28033.7 23748.3 23413.7 22481.4 21313.1 20521.8 19856.2 22121.2 19454.3 18613.4 17762.4 17549.1 16751.5 15814 18280.2
threshold=12.543750286102297 24.431249618530277 61.475000381469734 4.3812499046325692 935.96249389648449 -0.019999933242797849 -0.0037504196166992187 8.581835865974428 854.88748168945324 7.8944343471253005 43.068750381469734 -0.10124511718749998 16.690323883132038 4.9483951262383714 13.772109353542328 0.1200002670288086 7.6179166277249664 -0.14249973297119137 0.045013427734375007 15.182769060134889 8.775581954894724 0.31893762979782575 32.585677568117781 1.5275603562777704 0.60874996185302743 19.439974628745606 1.2571975518061709 -0.087499997019767753 35.906250000000007 9.3574219147364328
decision_type=2 2 2 2 2 2 2 2 2 2 2 2 2 2 2 2 2 2 2 2 2 2 2 2 2 2 2 2 2 2
left_child=3 4 5 15 12 13 11 9 -9 -6 -7 27 -2 28 -4 18 19 -10 -1 -8 -13 -16 -23 -18 -24 -11 -15 -5 29 -3
right_child=1 2 14 6 7 10 16 8 17 25 -12 20 -14 26 21 -17 23 -19 -20 -21 -22 22 24 -25 -26 -27 -28 -29 -30 -31
leaf_value=-0.20765456557962089 0.3905103772850308 0.63079116609034491 1.4132562569331151 -0.20829330958864378 0.25034489009587663 0.72034235967628379 -0.015184423397967698 0.31315601824908113 -0.12877520971125606 0.89779860686267865 1.3593444142094491 -0.069119872110943253 0.90918504324741178 0.54052605332078663 1.2522358805733793 0.14168279993232943 0.10417866342344768 0.095118727376901302 -0.11879564191052823 0.43970026227689102 0.090071720853058979 1.0722662161697041 2.6203380541609871 0.39325042509027502 4.3225991799281198 0.39425605570414896 0.10178081810436096 -0.085216941287845641 0.77532427291080108 0.28161548653470364
leaf_weight=98697 2779 3593 490 15275 18064 9454 27564 7355 5992 1426 931 17826 1909 1379 94 2728 15055 21182 40016 1070 14839 55 168 2754 104 1377 2690 40064 2699 2573
leaf_count=96222 1047 2036 466 14609 17391 4848 26961 5108 5191 286 787 17817 253 782 94 2530 13777 19976 39737 233 13705 55 168 2410 104 977 2005 38858 1317 1886
internal_value=1.62329e-10 0.339803 0.657756 -0.103847 0.211582 0.608022 -0.0281748 0.178566 0.102709 0.304087 0.777628 -0.0737622 0.60172 0.471842 1.93079 -0.175777 0.0582081 0.045749 -0.18202 0.00181378 0.00319741 2.53314 2.90135 0.148881 3.2712 0.650429 0.250473 -0.119189 0.573449 0.485084
internal_weight=360202 84314 24230 275888 60084 23319 134447 55396 34529 20867 10385 88004 4688 12934 911 141441 46443 27174 138713 28634 32665 421 327 17809 272 2803 4069 55339 8865 6166
internal_count=331636 64777 14548 266859 50229 13661 128370 48929 30275 18654 5635 84989 1300 8026 887 138489 43381 25167 135959 27194 31522 421 327 16187 272 1263 2787 53467 5239 3922
is_linear=0
shrinkage=0.1


Tree=14
num_leaves=31
num_cat=0
split_feature=0 0 0 2 12 12 12 10 12 21 10 51 6 13 8 23 2 12 17 48 25 8 18 13 20 21 57 7 11 39
split_gain=1.03513e+06 244327 182438 77237.7 72976.7 67124 46402.2 34385 27555.6 25935.3 25199.6 22167.1 21111.5 20968.8 24073.7 20280 20894.8 19457.8 18305.9 18151.3 17664.1 17518.9 17290.4 16840.9 15779 15616.6 14915.8 17926.6 15951.1 14049
threshold=17.468750000000004 9.4937500953674334 38.881250381469734 856.61251831054699 0.060000133514404301 0.015000033378601075 0.10499998331069947 5.8832291712363567 0.22249989509582521 1.6692127081674115 3.8055728849023587 12.352050697954022 18.173697835869262 -0.12499995231628416 12.623750044902168 1.7669717930970721 1097.6624755859377 0.42875003814697271 -0.42000064849853508 776.79062991672106 1.5033461872082923 19.000729274749762 9.2225261131922434 -0.31499958038330073 12.532487021552194 1.361519340327624 -0.014996337890624998 4.2190804759700837 1.1858216517836093 23.276058099949818
decision_type=2 2 2 2 2 2 2 2 2 2 2 2 2 2 2 2 2 2 2 2 2 2 2 2 2 2 2 2 2 2
left_child=1 5 4 11 15 10 13 19 12 -9 -1 -4 -6 -3 -15 21 -17 24 20 -7 -5 -2 -12 -14 -8 -16 -11 28 -28 -13
right_child=2 6 3 18 8 7 17 9 -10 26 22 29 23 14 25 16 -18 -19 -20 -21 -22 -23 -24 -25 -26 -27 27 -29 -30 -31
leaf_value=-0.19975570472265813 0.14615696704295375 -0.076581596590949208 1.2033859673895142 0.98972360803404968 0.27755183098901859 1.229064182401868 0.19203617961613528 -0.0052057354977866127 0.64950862332758053 0.022203161505867874 -0.059601380674963615 4.1429159104824071 -0.55141398090716098 0.030693975460050205 0.13882692205222044 -0.1547484741449458 0.40070933841117418 0.78489834767423783 0.84711104452231345 -0.099786924569134641 -0.3197692718666168 0.34437666951868301 -0.15289569705196673 0.53184445081638054 0.53159500609346377 0.40537263777314952 2.0407923450072607 0.779694831862347 0.20061504727090315 1.9923652022828244
leaf_weight=69503 7267 10024 487 164 6804 103 12686 29210 6909 2084 31364 32 146 29638 12703 2416 941 658 3881 50591 277 11538 54185 8435 1534 2658 48 789 2528 599
leaf_count=69170 6494 8908 455 116 5806 31 11867 27914 3561 1949 30698 32 74 28531 11767 1962 595 419 2235 48998 138 7760 51782 4615 576 1839 12 411 2330 591
internal_value=-1.17686e-10 -0.067977 0.422753 0.96938 0.355863 -0.115825 0.0965816 -0.0446056 0.483606 0.0321563 -0.155029 1.71024 0.409104 0.0542147 0.0833509 0.227359 0.000951794 0.253267 0.777736 -0.097087 0.167208 0.267777 -0.118692 0.513414 0.228667 0.184949 0.23244 0.362643 0.234904 2.10143
internal_weight=360202 310306 49896 5440 44456 240405 69901 85353 22294 34659 155052 1118 15385 55023 44999 22162 3357 14878 4322 50694 441 18805 85549 8581 14220 15361 5449 3365 2576 631
internal_count=331636 297202 34434 3567 30867 233295 63907 81645 14056 32616 151650 1078 10495 51045 42137 16811 2557 12862 2489 49029 254 14254 82480 4689 12443 13606 4702 2753 2342 623
is_linear=0
shrinkage=0.1


Tree=15
num_leaves=31
num_cat=0
split_feature=0 0 32 0 2 18 49 45 11 2 3 32 35 13 13 21 10 12 32 12 11 0 14 13 10 10 25 51 12 17
split_gain=841033 253832 106145 90283.1 66636.5 51781.8 45602.7 38005.3 35524.4 34787.8 33150.5 31242.8 27113.1 24814.7 24044.5 22652 22229.5 20038.3 17919.7 16976.7 16971.2 16938.3 16614.3 15774.8 14891.3 14869.2 19019.5 16601.1 14587 13548.6
threshold=11.69374990463257 25.581250190734867 896.57187398274743 4.0687499046325692 943.23751831054699 9.1645833253860491 6.9586918676266993 0.060003662109375008 8.3080055530771393 1099.0875244140627 854.88748168945324 961.24062347412121 11.819701007544921 -0.29125003814697265 -0.072499966621398917 2.3544429750514886 9.5803125092138863 0.11999993324279787 927.53750356038415 0.0025000065565109254 9.6233745219997804 50.156250000000007 0.024999999254941944 -0.2275001049041748 7.6294791553169494 49.597708241144822 0.42269729515715215 15.591801833605494 0.015000104904174806 -0.42000064849853508
decision_type=2 2 2 2 2 2 2 2 2 2 2 2 2 2 2 2 2 2 2 2 2 2 2 2 2 2 2 2 2 2
left_child=3 4 6 15 12 8 -3 11 28 13 -7 -5 -2 -4 -13 19 -9 -18 -15 -1 -17 29 -10 -12 -16 26 -8 -27 -6 -11
right_child=1 2 9 7 5 10 25 16 22 21 23 14 -14 18 24 20 17 -19 -20 -21 -22 -23 -24 -25 -26 27 -28 -29 -30 -31
leaf_value=-0.19157379205007263 0.26337588406326151 0.84499785099739977 -0.14610009404934568 0.17140937036981596 0.087353337890525282 0.25161827990683566 -0.048876873075962071 0.0069986368393476113 0.18941329270393314 -0.26496413845446087 -0.24792879946741683 -0.16456560093453856 0.68113270038784723 0.72290797244026761 -0.080947725574777099 0.023253425638761073 0.13792133209870838 0.57228911333362875 0.33815790239361282 -0.11930437696075101 0.75429187803903874 1.2025052261251941 0.65449772430079844 0.022325277525098275 0.0098371685235754316 1.8071744732720696 1.656022032653844 3.3451774493302455 0.23862426508336143 0.60684824666258919
leaf_weight=64284 2978 1493 914 5527 9410 6401 75 19488 1086 182 2382 22191 3248 1448 47416 3631 8635 1211 7381 65751 348 474 2624 23157 29191 230 513 101 19762 8670
leaf_count=63411 1367 994 535 2935 9102 4518 67 19443 465 57 1887 21453 627 603 47128 3496 7789 957 4683 64194 213 436 1278 21825 28120 230 464 101 18722 4536
internal_value=6.01906e-11 0.259894 0.561114 -0.0898401 0.168822 0.138808 1.18614 -0.0316864 0.226896 0.482056 0.0481224 -0.0599622 0.481313 0.349911 -0.0729057 -0.14784 0.0688751 0.191346 0.401259 -0.155031 0.0871894 0.620109 0.518357 -0.00288108 -0.0463543 1.74036 1.43856 2.27647 0.189829 0.588924
internal_weight=360202 92529 21481 267673 71048 64822 2412 133659 32882 19069 31940 104325 6226 9743 98798 134014 29334 9846 8829 130035 3979 9326 3710 25539 76607 919 588 331 29172 8852
internal_count=331636 72497 12706 259139 59791 57797 1856 127825 29567 10850 28230 99636 1994 5821 96701 131314 28189 8746 5286 127605 3709 5029 1743 23712 75248 862 531 331 27824 4593
is_linear=0
shrinkage=0.1


Tree=16
num_leaves=31
num_cat=0
split_feature=0 0 0 20 12 12 12 13 10 10 13 8 18 2 25 17 9 23 9 45 21 31 13 10 18 12 8 39 21 16
split_gain=691352 173682 120070 61303.7 45118.8 43150.1 41606.1 28975.2 28469.4 26260.5 25629.3 25336.8 24552.8 18198.1 17824.1 17699.3 17184.8 16654 14791.4 14775.2 14257.6 14406.3 13740.6 13710.9 13149.8 12585.4 12070.7 11909.4 11855.3 11620.6
threshold=17.931249618530277 7.4062500000000009 35.906250000000007 13.004839393827652 0.22249989509582521 0.16250000596046452 0.11999993324279787 -0.09999999701976775 2.2608854206899807 22.493281269073488 -0.057499933242797847 11.101770834128063 8.5404947996139544 953.21249389648449 0.31893762979782575 -0.17375001907348631 4.1806999783042089 1.9343556997353637 6.3023359592121508 -0.25076293945312494 1.361519340327624 -0.065000104904174794 -0.035000133514404293 15.884583320220313 9.7362630764643381 0.23750004768371583 22.314166756471 26.908476424175014 2.4402954065216709 0.60874996185302743
decision_type=2 2 2 2 2 2 2 2 2 2 2 2 2 2 2 2 2 2 2 2 2 2 2 2 2 2 2 2 2 2
left_child=1 6 4 17 7 10 8 19 -1 -9 24 -12 20 -14 18 -7 -8 25 -5 -2 -10 -22 -15 -16 -3 -4 -13 -21 -18 -25
right_child=2 5 3 14 -6 15 16 9 12 -11 11 26 13 22 23 -17 28 -19 -20 27 21 -23 -24 29 -26 -27 -28 -29 -30 -31
leaf_value=-0.17942644916728562 -0.0072257047349193514 0.027200290532257271 0.62074141438132935 2.4510739833116535 0.53387518630972808 0.94731365797442324 0.053960305563713146 0.24414187495745315 -0.077606487910465705 0.49510849836238979 0.021980521016198493 0.14183120531863289 0.066310227520673171 -0.17781987871834826 0.92935904602656216 0.21349488013383883 0.32499983486450862 0.21591504638137882 0.04545996959401867 0.31146181583855909 -0.074378792448671155 0.11271796675553099 -0.100419463463985 1.5767774652125581 -0.098511789958745571 1.060486649878702 0.51367751101327075 0.00040860977481209739 1.1719587952276778 2.5042598642002454
leaf_weight=52897 5490 15036 5055 32 6205 339 6735 16652 25677 5562 42001 19009 4966 37084 178 10800 1026 904 127 4201 6742 10564 60119 350 18631 747 915 1741 197 220
leaf_count=52672 3973 14091 2752 32 3232 132 6429 13839 25677 2726 40120 17650 2554 36337 164 9144 828 374 95 2710 6328 10177 59507 344 17056 494 393 1517 71 218
internal_value=-1.78974e-11 -0.053972 0.355619 0.719514 0.286102 0.0495618 -0.107612 0.240407 -0.116621 0.30698 0.0278569 0.0660361 -0.0937328 -0.120409 1.49112 0.235828 0.116581 0.615153 0.529609 0.111047 -0.0303239 0.0398296 -0.129949 1.6955 -0.0423676 0.677358 0.158908 0.220324 0.461427 1.93475
internal_weight=360202 312738 47464 7613 39851 106731 206007 33646 198049 22214 95592 61925 145152 102169 907 11139 7958 6706 159 11432 42983 17306 97203 748 33667 5802 19924 5942 1223 570
internal_count=331636 299166 32470 4473 27997 98586 200580 24765 193252 16565 89310 58163 140580 98398 853 9276 7328 3620 127 8200 42182 16505 95844 726 31147 3246 18043 4227 899 562
is_linear=0
shrinkage=0.1


Tree=17
num_leaves=31
num_cat=0
split_feature=0 0 2 12 2 10 49 18 2 11 3 35 9 13 18 2 18 32 2 39 0 21 34 35 37 21 5 10 1 43
split_gain=561565 177336 74117.2 58675.9 45041.1 38466.4 36212.7 33846.6 31523.8 28090 25754.7 22341.2 22171 21671.1 18952.1 16603.7 15408.6 14874 14768.7 14634.6 13819.8 13454.9 12313.6 12268.6 13906 11291.8 11189.2 16478.2 13964.4 11068.3
threshold=11.38124990463257 23.91874980926514 895.83749389648449 0.059999993443489087 935.96249389648449 5.8330729275941859 6.9586918676266993 8.3977864782015512 1098.3375244140627 7.8944343471253005 858.78750610351574 16.319660912922362 3.5080430984088156 -0.29125003814697265 10.290494879086813 926.81250000000011 10.964062492052717 943.49375152587902 856.61251831054699 31.990233139960253 43.068750381469734 2.2742593428455282 1019.6166661580404 9.9377898630878239 15.478621238623182 1.372365926705142 5.2547783801889736 49.597708241144822 15.765625000000002 1.0000000180025095e-35
decision_type=2 2 2 2 2 2 2 2 2 2 2 2 2 2 2 2 2 2 2 2 2 2 2 2 2 2 2 2 2 2
left_child=3 4 6 5 11 17 -3 9 13 -6 -9 -2 18 -4 -7 -15 -12 -1 -5 23 -10 -14 -16 -11 -25 29 27 -8 -29 -17
right_child=1 2 8 12 7 14 26 10 20 19 16 -13 21 15 22 25 -18 -19 -20 -21 -22 -23 -24 24 -26 -27 -28 28 -30 -31
leaf_value=0.15066564185865147 0.22842119273208025 0.65722154799481269 -0.1715134424047246 1.0313261925531001 0.16182009228093555 -0.0058050200686443412 0.86159442108390594 0.19535897557982462 0.46250541593898531 0.33935458554787234 0.050802004426601335 0.66304723428528134 0.14743303317461651 0.59671181807895823 -0.01095553758422513 0.21518600786963962 -0.10405110465269039 -0.13182276420577244 -0.0016884104899116421 0.14548619438494301 0.85610291312448694 0.57056847894085549 -0.13966339358946564 1.0919349059163028 0.36554414020369053 0.022745310513772099 2.0668485505682117 1.1565985221659383 2.5379739922956683 0.46828712249023252
leaf_weight=1890 2664 1713 1048 139 19236 53385 448 9770 9942 771 24931 2127 6155 1651 10693 4840 8657 135058 31932 813 980 856 24383 796 394 1738 212 151 142 2687
leaf_count=1080 1107 1002 640 31 18605 52035 355 7273 5347 222 23949 288 5642 604 8938 3372 7658 133915 30346 631 751 496 23582 147 264 1371 210 151 142 1482
internal_value=-2.52373e-11 0.207564 0.433116 -0.0751108 0.125417 -0.094723 0.932118 0.103726 0.374987 0.204721 0.052457 0.421377 0.0380046 0.262851 -0.0433237 0.304552 0.01089 -0.127924 0.00278881 0.502209 0.497822 0.199095 -0.100427 0.6501 0.851432 0.25249 1.42624 1.24296 1.82607 0.305538
internal_weight=360202 95711 25552 264491 70159 225409 2666 65368 22886 22010 43358 4791 39082 11964 88461 10916 33588 136948 32071 2774 10922 7011 35076 1961 1190 9265 953 741 293 7527
internal_count=331636 75571 15427 256065 60144 219550 1860 58749 13567 19869 38880 1395 36515 7469 84555 6829 31607 134995 30377 1264 6098 6138 32520 633 411 6225 858 648 293 4854
is_linear=0
shrinkage=0.1


Tree=18
num_leaves=31
num_cat=0
split_feature=0 0 0 12 0 13 13 20 10 8 32 2 21 21 25 21 17 13 10 1 44 47 32 32 37 13 2 9 54 32
split_gain=460113 125234 78642.8 38793.4 38406.3 30278.8 26155.5 25919.4 22697.6 19980.3 19869.2 17885.8 14858.6 14214.4 14106.2 13944.7 13944.2 13858.4 16460.8 13668.5 13651.1 12924.2 12578.2 11817.4 11403.9 11270.5 10734.5 10673.1 10483.4 10314.4
threshold=18.681249618530277 9.5687499046325701 43.068750381469734 0.017500209808349616 2.6437500715255742 -0.0037504196166992187 -0.050000035762786853 11.692556420962019 22.493281269073488 5.7859374821186078 927.53750356038415 895.83749389648449 2.2068499893180573 2.7256901793336543 0.31893762979782575 1.5593252361993397 -0.10499973297119139 -0.19250020980834959 20.747083270549776 10.563281059265138 0.31500854492187508 1.7527324395236434 896.57187398274743 961.24062347412121 17.952511725989769 -0.42125053405761714 1124.9625244140627 6.3023359592121508 0.16499633789062504 915.60312652587902
decision_type=2 2 2 2 2 2 2 2 2 2 2 2 2 2 2 2 2 2 2 2 2 2 2 2 2 2 2 2 2 2
left_child=1 4 3 25 13 17 12 20 10 21 -5 14 -6 22 27 29 -7 -3 -19 -12 26 -8 -1 -18 -14 -2 -4 -9 -20 -11
right_child=2 5 7 8 6 16 9 11 -10 15 19 -13 24 -15 -16 -17 23 18 28 -21 -22 -23 -24 -25 -26 -27 -28 -29 -30 -31
leaf_value=0.86309300781940124 -0.35775420829057208 -0.13992382219921928 0.4588475617384048 0.55105125142889966 -0.12632533831334145 0.42036804326932864 -0.074326002707322716 1.9639473497867586 0.47097269667109343 0.59836881393448216 0.27837267507728919 0.11068242550675388 0.69400961278018602 0.2252442614859152 1.3986309510783086 0.17499061950324565 0.31423753307339441 0.025948871947474497 0.19397354142378698 0.043015738584050847 0.14556618988719153 0.05398701397869992 -0.13278169575548623 0.10997446613284229 -0.0051138441111124944 0.14613048392986105 1.0237081130534884 -0.10086288195589316 0.72836565018143484 0.0048135926715716752
leaf_weight=127 459 4643 722 2258 37474 1880 55172 32 8434 295 13236 153 383 1131 987 5842 3276 41025 2295 3033 590 9152 92772 20913 597 13488 630 115 437 38651
leaf_count=46 237 3860 522 656 36178 1183 54407 32 3626 88 10114 107 185 1050 971 5293 1639 39372 1593 2588 362 7838 91449 19728 408 9761 550 91 230 37472
internal_value=1.32795e-10 -0.042235 0.302445 0.264942 -0.0771825 0.0711434 -0.0453555 0.777559 0.334983 -0.0203622 0.273076 1.12559 -0.116273 -0.12713 1.26252 0.0309204 0.158028 0.0243461 0.0417766 0.234496 0.546915 -0.0560697 -0.13142 0.137639 0.268115 0.129547 0.722059 0.34862 0.279453 0.00930953
internal_weight=360202 316065 44137 40908 241596 74469 147566 3229 26961 109112 18527 1287 38454 94030 1134 44788 26069 48400 43757 16269 1942 64324 92899 24189 980 13947 1352 147 2732 38946
internal_count=331636 302019 29617 26982 234414 67605 141869 2635 16984 105098 13358 1201 36771 92545 1094 42853 22550 45055 41195 12702 1434 62245 91495 21367 593 9998 1072 123 1823 37560
is_linear=0
shrinkage=0.1


Tree=19
num_leaves=31
num_cat=0
split_feature=0 0 0 20 12 12 12 2 18 21 6 10 37 12 20 23 45 35 2 2 18 59 8 58 59 10 10 39 29 25
split_gain=374928 83585.6 82286.8 33162 32094.9 25165.9 24852.6 19677 26922.1 17836.2 21257.9 16051.9 17985.6 15813 13633.7 13463.9 13023.6 12598.6 12238.1 12217.3 16058.1 11864.1 11718.6 11491.1 9309.6 9230.29 9186.95 9162.01 9812.35 13320.1
threshold=16.281250000000004 33.968750000000007 6.9437499046325692 13.004839393827652 0.090000104904174816 0.29124984741210941 0.0025000333786010746 966.71249389648449 9.6358073949813861 2.3544429750514886 10.94704861773385 20.747083270549776 14.320051049117756 0.37375028133392341 15.182769060134889 1.9343556997353637 -0.10124511718749998 23.579813439239128 1079.5125122070315 935.96249389648449 10.964062492052717 0.10498657226562501 3.8648611108462019 -0.11249999999999999 -0.13500366210937498 22.493281269073488 16.945364654064182 24.093008269844201 0.0015578358920652479 0.8068405018036634
decision_type=2 2 2 2 2 2 2 2 2 2 2 2 2 2 2 2 2 2 2 2 2 2 2 2 2 2 2 2 2 2
left_child=2 4 6 15 19 7 -1 24 11 14 -11 -9 21 25 16 -3 -8 -16 -17 -2 26 -13 -18 27 -4 -6 -21 -5 29 -29
right_child=1 3 5 23 13 -7 9 8 -10 10 -12 12 -14 -15 17 18 22 -19 -20 20 -22 -23 -24 -25 -26 -27 -28 28 -30 -31
leaf_value=-0.11845264958082789 0.34507226685794429 0.49190540889701861 0.30192067447127124 2.8760663562350803 0.21335377164363567 0.33228466228960873 -0.096288300957196093 0.040921935986557169 -0.054514217408089795 0.08899471425925469 0.87826515868613397 0.45687824622214412 0.074620358154277727 0.53955494998674969 0.0038914437797791714 -0.26359287097677592 -0.067846196607178277 0.59138755580425506 0.38698210971119923 0.068434145420465387 -0.05687010369953454 1.3234877920513735 0.032467101250876797 0.64661146444832629 0.061684019710889076 0.40695254302804723 0.19665864849874382 0.84116412696118159 0.46173780304379763 1.9628441809064914
leaf_weight=97084 2200 7351 3399 36 12100 2630 48366 54098 40448 2832 388 832 1452 2201 898 475 25687 615 739 10434 5269 195 21304 421 3070 3092 12030 192 128 236
leaf_count=95338 727 3997 1417 36 9292 1986 46845 53243 38801 2715 127 418 984 984 196 275 25642 147 210 9755 4081 33 21115 304 2440 1293 8689 184 128 234
internal_value=6.84554e-11 0.23554 -0.0441914 0.504946 0.181017 0.026807 -0.0824045 0.0190441 0.00778516 -0.047439 0.184099 0.0523242 0.30115 0.28905 -0.0551354 0.440954 -0.059861 0.242695 0.132433 0.118243 0.100249 0.621424 -0.0223678 1.046 0.187911 0.252757 0.137101 1.33003 1.22992 1.45966
internal_weight=360202 56904 303298 9578 47326 106124 197174 103494 97025 100090 3220 56577 2479 17393 96870 8565 95357 1513 1214 29933 27733 1027 46991 1013 6469 15192 22464 592 556 428
internal_count=331636 40189 291447 5368 34821 99322 192125 97336 93479 96787 2842 54678 1435 11569 93945 4482 93602 343 485 23252 22525 451 46757 886 3857 10585 18444 582 546 418
is_linear=0
shrinkage=0.1


Tree=20
num_leaves=31
num_cat=0
split_feature=0 0 32 55 12 21 0 20 2 18 13 49 8 7 23 35 50 22 32 8 19 24 11 33 13 10 0 8 12 48
split_gain=305597 103978 41621.8 36260 32333 26403.5 25265.2 22571.8 21732 20640.6 20010.6 18467.7 18225.3 17028.9 16349.5 15613.3 14921.5 14162.7 12504.3 11180 10965.1 12331.3 20721.4 10753.3 10615.7 11162.7 10210.3 11747.8 9745.61 9200.71
threshold=10.968750000000002 25.00625038146973 896.57187398274743 0.045013427734375007 0.0062500000000000012 1.4571175800032508 1.7687500119209292 8.8566406899028376 943.23751831054699 8.2454426884651202 -0.02249989509582519 6.5782750914430048 19.34333338737488 7.850848150930819 1.9491378889265321 15.826512589149507 885.19875233968116 8.5614453196525577 975.65937550862645 5.3730208257834127 0.58571057863795251 10.077161457141242 1.1552658099792701 7.5965196279628397 -0.16499986648559567 14.638333264986676 50.156250000000007 51.86541625658672 0.13500013351440432 776.79062991672106
decision_type=2 2 2 2 2 2 2 2 2 2 2 2 2 2 2 2 2 2 2 2 2 2 2 2 2 2 2 2 2 2
left_child=3 4 11 6 -2 -5 -1 16 15 12 -8 -3 -10 20 28 -6 -4 -14 29 -20 21 -7 23 -23 -11 -26 27 -18 -9 -12
right_child=1 2 7 5 8 13 10 14 9 24 18 -13 17 -15 -16 -17 26 -19 19 -21 -22 22 -24 -25 25 -27 -28 -29 -30 -31
leaf_value=-0.12465080625550573 0.0046817871199432981 0.49004473919474267 0.040132700631092713 -0.012779189980250495 0.17994260997169248 0.15585466705128281 -0.08649564503082563 0.1568417359369588 0.16032764840322736 -0.1564453634322778 1.226402278741201 1.0444394788226614 0.22527688578353106 0.90457328291377059 -0.18216263575027988 0.53544896273486331 0.42105714699126939 0.67470433636281957 -0.060065919028934781 0.01962268642751017 -0.030572174690534172 1.8240180829044761 0.32107560355544673 0.31221312109325361 0.043145918466588565 0.18444375384953576 0.94774979605873144 -0.24544443321578646 0.40994487624079912 0.09098942473421695
leaf_weight=64435 26982 1423 1140 25436 2776 4907 79089 5874 13511 1965 72 1040 1466 320 1143 2226 9537 1344 45225 28828 2200 158 1106 67 19213 7886 356 272 2053 8152
leaf_count=63598 23684 945 774 25337 1115 4691 76389 3744 12863 1668 18 926 884 113 889 359 4912 714 44937 28072 1993 32 1097 49 18214 6655 338 48 1072 5506
internal_value=9.61505e-11 0.148366 0.335855 -0.0571831 0.0930227 0.0387833 -0.0717157 0.288918 0.140329 0.118526 -0.0505782 0.724138 0.208519 0.188537 0.171411 0.338151 0.383194 0.440234 -0.0160525 -0.029044 0.161382 0.22908 0.49904 1.37384 0.0679903 0.0842646 0.421668 0.402575 0.222392 0.10093
internal_weight=360202 100207 22838 259995 77369 34194 225801 20375 50387 45385 161366 2463 16321 8758 9070 5002 11305 2810 82277 74053 8438 6238 1331 225 29064 27099 10165 9809 7927 8224
internal_count=331636 79804 13648 251832 66156 33312 218520 11777 42472 40998 154922 1871 14461 7975 5705 1474 6072 1598 78533 73009 7862 5869 1178 81 26537 24869 5298 4960 4816 5524
is_linear=0
shrinkage=0.1


Tree=21
num_leaves=31
num_cat=0
split_feature=0 0 2 2 12 0 12 10 45 17 19 21 13 55 32 10 20 12 37 20 10 58 8 48 52 8 49 24 11 59
split_gain=250727 74558.6 47416.4 32268.6 27359.8 21409 20828.9 19603.3 19805.7 15303.5 15014 20250.3 14988.3 14819.8 14554.6 14474.4 14529.8 12765.7 12184.6 11946.6 11657.3 11433.1 11260.5 16623.3 11627.4 10008.1 9950.92 9442.69 20164.6 9803.49
threshold=19.531250000000004 9.9812502861022967 926.81250000000011 1099.8375244140627 0.11999993324279787 61.475000381469734 0.01500053405761719 2.1124479190756884 -0.16500854492187497 -0.09999999701976775 0.59707464216015527 1.2928639432389291 -0.29125003814697265 -1.0000000180025095e-35 981.18749745686853 22.493281269073488 5.5512276821666307 0.42875003814697271 18.892293096805599 9.6588107082578887 27.034375137090688 -0.029998779296874997 51.86541625658672 776.79062991672106 780.66562423706068 12.338229143619539 5.0977705113548515 10.300097676118217 1.1552658099792701 0.040497741699218763
decision_type=2 2 2 2 2 2 2 2 2 2 2 2 2 2 2 2 2 2 2 2 2 2 2 2 2 2 2 2 2 2
left_child=1 4 5 12 7 18 -3 -1 14 -6 11 -10 -4 -13 -9 -5 -17 20 -2 -18 26 -22 -7 24 -24 27 -8 -15 29 -29
right_child=2 6 3 15 9 22 17 8 10 -11 -12 13 -14 25 -16 16 19 -19 -20 -21 21 -23 23 -25 -26 -27 -28 28 -30 -31
leaf_value=-0.11964748253077273 0.30379272081935871 -0.0025755898254362884 -0.21614991262415859 0.21038500292640958 0.49669244415748726 0.32836540319507401 0.052557981856527471 0.039262841435267183 -0.028320241332337098 0.056806263472961409 -0.094811258973683227 -0.0064458638530183092 0.12839477438877053 0.085762012214832317 -0.094429030958351257 -0.097630866769362584 0.49468148217026792 0.50441500785960069 0.62590118492049429 0.04087195253466766 -0.12189495577732345 0.69767675357161485 1.1931385763308568 3.0641482158140705 -0.36380921146779693 0.41469672336486074 0.1564894936603011 0.39690471448396386 0.21891479326119911 1.8415377686663374
leaf_weight=49363 3234 30806 1357 8364 846 201 25241 9022 52621 12139 19153 9158 18148 8405 83593 528 5686 789 1844 646 237 604 505 44 53 1399 14507 76 1510 123
leaf_count=49282 1294 28300 861 6382 540 195 23819 5953 52252 11347 18568 8996 13191 8351 82045 128 2891 492 760 405 138 177 505 44 49 1039 12058 49 1510 15
internal_value=-2.21899e-11 -0.0297403 0.23405 0.189584 -0.0558298 0.496634 0.0596802 -0.0636563 -0.0487212 0.0854658 -0.0159767 0.00462472 0.104424 0.0884909 -0.0814056 0.298691 0.406358 0.10603 0.420762 0.448383 0.0982857 0.466715 0.976435 1.19282 1.04526 0.164008 0.0904903 0.129332 0.343613 1.28982
internal_weight=360202 319592 40610 34729 247408 5881 72184 234423 185060 12985 92445 73292 19505 20671 92615 15224 6860 41378 5078 6332 40589 841 803 602 558 11513 39748 10114 1709 199
internal_count=331636 304931 26705 23858 239947 2847 64984 228060 178778 11887 90780 72212 14052 19960 87998 9806 3424 36684 2054 3296 36192 315 793 598 554 10964 35877 9925 1574 64
is_linear=0
shrinkage=0.1


Tree=22
num_leaves=31
num_cat=0
split_feature=0 10 2 32 45 2 56 13 14 19 7 38 12 32 24 45 10 38 8 38 28 10 52 35 49 11 52 32 59 19
split_gain=203196 65756 37706.8 30137.7 26893.7 26260.1 20657.7 19015.6 17640.4 17087.1 19247.1 18579.6 14343.9 13486.3 12910.9 14266.5 11191.7 12283.1 11008.2 11553.4 10425.2 9557.69 11803.8 9331.19 9068.1 8942.2 8914.3 8069.7 7984.34 7933.84
threshold=19.843750000000004 8.9408854424953486 926.81250000000011 943.49375152587902 0.015008544921875002 1099.8375244140627 0.090008544921875003 -0.10250000357627868 0.40124988555908209 0.6360243045499725 4.2190804759700837 981.11656138102228 0.0025000333786010746 971.67186991373717 11.751484366257989 -0.16499633789062498 22.493281269073488 1156.9456278483074 21.1641666730245 1092.235936991374 0.014843654632568362 32.585677568117781 821.71224072221401 24.145443280896192 6.6981116019660467 18.331760971638221 1019.5025009155274 995.23380672570443 0.51750488281250007 0.043693959481066656
decision_type=2 2 2 2 2 2 2 2 2 2 2 2 2 2 2 2 2 2 2 2 2 2 2 2 2 2 2 2 2 2
left_child=1 3 8 20 7 14 12 -3 24 10 28 -12 -5 -9 15 27 -7 26 -13 -20 -1 -10 -23 -17 -2 -19 -18 -4 -6 -26
right_child=2 4 5 6 9 16 -8 13 21 -11 11 18 -14 -15 -16 23 17 25 19 -21 -22 22 -24 -25 29 -27 -28 -29 -30 -31
leaf_value=0.25817162978839731 0.28137284537861695 -0.086380789779977166 0.21734231547711508 -0.098901630612178867 0.10856018032662851 0.19291725600588361 0.036003175347353499 0.20118028690485379 0.64283090246673891 -0.038693798538477736 -0.18477565275515309 0.28412163345623387 -0.045495088050021143 0.023459569514469383 -0.32218313793487408 0.2328941389928264 0.41971821656889541 0.098489576980881094 0.75097568775575063 0.13711217413179111 -0.0057516553197715812 1.0991524141964815 3.1437833905220032 -0.13687187262798267 1.2803831553826595 0.8752542537191641 0.99824098643481529 -0.021064700191424965 0.78565059897108858 0.50240371090077607
leaf_weight=3982 3377 15570 1753 96449 16649 8084 19794 4708 712 4955 598 2725 105079 45885 714 8131 4526 1865 1313 400 2398 240 32 745 146 161 283 7469 176 1283
leaf_count=1960 1343 14283 678 95567 16103 6113 19632 2587 440 4217 580 2402 103495 43341 678 5596 2207 913 398 265 967 240 32 583 146 23 256 5905 59 627
internal_value=6.74078e-11 -0.0263671 0.213948 -0.0553032 0.0444964 0.173479 -0.0614801 0.0102572 0.449708 0.128974 0.166978 0.338485 -0.0710548 0.0399976 0.0949034 0.111358 0.272558 0.366751 0.408992 0.607633 0.158973 0.835461 1.3397 0.201858 0.370727 0.160217 0.453763 0.0242538 0.115643 0.581889
internal_weight=360202 320681 39521 227702 92979 33731 221322 66163 5790 26816 21861 5036 201528 50593 18812 18098 14919 6835 4438 1713 6380 984 272 8876 4806 2026 4809 9222 16825 1429
internal_count=331636 305856 25780 221621 84235 22952 218694 60211 2828 24024 19807 3645 199062 45928 13440 12762 9512 3399 3065 663 2927 712 272 6179 2116 936 2463 6583 16162 773
is_linear=0
shrinkage=0.1


Tree=23
num_leaves=31
num_cat=0
split_feature=0 0 12 12 2 2 18 8 13 10 14 47 3 35 7 18 13 52 3 10 19 21 17 17 8 10 30 24 21 37
split_gain=169642 62109 26041.5 23570.5 21754.3 18739.1 22238 15749.7 16550.8 15184.1 13021.5 12893.1 11878.5 11207.6 10430 10268.3 8624.56 8422.15 8253.6 8070.48 8060.55 11262 9878.7 7605.99 6932.06 6885.32 6800.13 6780.63 6724.37 7373.66
threshold=10.581249713897707 28.931249618530277 0.31999999284744268 0.092500209808349623 895.83749389648449 957.33749389648449 9.2982421716054287 2.9160416839954757 -0.052500006556510916 15.038333348433179 0.44749991893768315 5.6124810838133126 879.48751831054699 4.8359326676680858 7.850848150930819 11.329687476158144 -0.26249990463256828 881.15968577067065 988.68750000000011 4.8235937505960473 0.84771300199369859 1.2405963793304859 -0.24875011444091794 -0.42000064849853508 6.59874994357427 15.038333348433179 0.01203117370605469 10.638522171974184 2.2742593428455282 19.268962021824652
decision_type=2 2 2 2 2 2 2 2 2 2 2 2 2 2 2 2 2 2 2 2 2 2 2 2 2 2 2 2 2 2
left_child=3 2 5 7 10 13 9 -1 28 18 -3 14 -8 -2 -5 23 -14 -11 -7 -20 21 -19 26 -6 -10 -12 -23 -15 -9 -30
right_child=1 4 -4 11 15 6 12 8 24 17 25 -13 16 27 -16 -17 -18 20 19 -21 -22 22 -24 -25 -26 -27 -28 -29 29 -31
leaf_value=-0.089616502106525164 -0.020658859005592514 0.47347560948308509 0.32786969764121998 0.039028161525110419 -0.086293893310791514 0.036661006315523451 0.075527340517006991 -0.0912652019384049 -0.033266661313800391 0.068010085289036321 0.40812084513157609 0.56515665632479528 -0.26599807478012605 0.42757403821846929 0.7149343337895937 -0.0077647088716158198 -0.033420253246962336 0.18426003120849621 0.81598655005842291 0.17793121690139185 -0.036492215659142742 0.20331826513391682 0.30691956699619727 0.2920494605935568 0.01820092574508448 1.3747833084858889 0.89255812327614281 0.20172443449482411 0.45512021455694651 -0.061571599867005236
leaf_weight=77969 1770 1717 3892 19556 557 24462 10971 44763 69210 4972 100 492 1716 1811 231 1441 22502 6707 237 1212 1055 189 2047 11540 42081 280 590 4998 476 658
leaf_count=77321 1158 1324 2314 18404 269 24054 9476 43125 67671 4394 96 312 1266 593 78 839 20948 5497 48 1200 614 99 1352 6211 39930 280 211 1832 242 478
internal_value=5.8357e-11 0.107158 0.0749101 -0.0439504 0.290995 0.06336 0.0476749 -0.0528709 -0.0346442 0.0972878 0.590705 0.0594922 -0.010795 0.203519 0.0469189 0.244571 -0.0498999 0.175371 0.0503972 0.282292 0.225787 0.254813 0.422258 0.274629 -0.0138059 1.1204 0.725336 0.261794 -0.0851729 0.155311
internal_weight=360202 104766 89131 255436 15635 85239 76660 235157 157188 41471 2097 20279 35189 8579 19787 13538 24218 15560 25911 1449 10588 9533 2826 12097 111291 380 779 6809 45897 1134
internal_count=331636 84075 75056 247561 9019 72742 69159 228767 151446 37469 1700 18794 31690 3583 18482 7319 22214 12167 25302 1248 7773 7159 1662 6480 107601 376 310 2425 43845 720
is_linear=0
shrinkage=0.1


Tree=24
num_leaves=31
num_cat=0
split_feature=8 12 12 6 13 8 0 13 3 20 12 25 4 21 21 7 8 10 11 13 57 41 45 20 30 52 3 59 12 47
split_gain=138472 55619.9 39279.8 26960.2 20144.8 17827.3 15023.9 15927.3 14945.8 16173.1 14799.3 13776.1 13664.4 10742.3 9243.65 8691.97 7378.98 7312.06 6637.5 8137.1 6222.69 6212.31 5667.47 5586.57 5580.02 5440.35 5391.26 6618.58 5331.21 5322.06
threshold=12.479999971389772 0.077499973773956315 0.1200002670288086 52.940277682410347 -0.15499973297119138 19.776666649182641 2.6437500715255742 -0.062499997019767752 979.16250610351574 13.620432792287886 0.31999999284744268 1.8591964035200597 55.046875158945724 2.4402954065216709 0.46760086858515204 11.422503590503679 6.7183333019415548 21.270208416382477 8.5410971244646596 -0.29125003814697265 -0.030001831054687497 0.24000854492187504 0.015008544921875002 4.9962239530351438 0.014375209808349611 928.75468826293957 949.16250610351574 -0.13692967237624445 0.017500209808349616 1.7527324395236434
decision_type=2 2 2 2 2 2 2 2 2 2 2 2 2 2 2 2 2 2 2 2 2 2 2 2 2 2 2 2 2 2
left_child=2 4 6 10 11 -6 22 -8 9 -4 18 13 28 17 -11 -5 29 -2 26 -20 -13 -10 -1 -19 -24 -16 27 -3 -7 -9
right_child=1 3 8 15 5 12 7 16 21 14 -12 20 -14 -15 25 -17 -18 23 19 -21 -22 -23 24 -25 -26 -27 -28 -29 -30 -31
leaf_value=-0.095032630366015225 -0.050479359035687593 0.33144795416820927 0.037834124580502615 0.81533070294222298 0.053317604694801471 0.12278471518607073 -0.08484856940818164 -0.040915071224116528 0.28768487405103838 0.066465042607073033 0.43762092885114284 -0.22668067301769682 0.78907966345347269 1.5487001890831806 0.57498742213521281 2.0272083973539048 0.01954910011500028 -0.51092824030167128 -0.46795893214482204 0.30634709140263738 -0.0092821717290520224 0.79687502984413694 -0.088278808870540348 0.14452954694505649 -0.0029769415972990352 0.11523464784795744 0.25692013387631019 0.081026361773738731 0.24711243631108909 0.035004928934060688
leaf_weight=61294 4979 1227 21558 416 28458 8447 36633 63695 1295 934 3061 3922 370 47 1122 69 50694 134 139 5752 1982 294 14282 4393 16561 334 3935 7547 5829 10799
leaf_count=59989 4443 560 20553 402 26411 5954 35724 62975 935 217 1500 2877 364 11 467 69 48372 44 76 2629 1512 122 14282 2583 16561 134 2662 6048 3513 9647
internal_value=3.54e-11 0.115382 -0.0333178 0.250377 0.0643316 0.0994537 -0.0452056 -0.0268525 0.0849028 0.0651967 0.233867 -0.0336115 0.189099 0.0406057 0.312009 0.987742 -0.0098815 0.0331493 0.200335 0.288077 -0.153699 0.381896 -0.0774393 0.125128 -0.0424764 0.469522 0.159664 0.116047 0.173549 -0.0299094
internal_weight=360202 80707 279495 22146 58561 43104 253958 161821 25537 23948 21661 15457 14646 9553 2390 485 125188 9506 18600 5891 5904 1589 92137 4527 30843 1456 12709 8774 14276 74494
internal_count=331636 61658 269978 13946 47712 36242 247550 156718 22428 21371 13475 11470 9831 7081 818 471 120994 7070 11975 2705 4389 1057 90832 2627 30843 601 9270 6608 9467 72622
is_linear=0
shrinkage=0.1


Tree=25
num_leaves=31
num_cat=0
split_feature=0 0 13 45 54 21 32 31 13 10 10 12 11 8 9 23 49 3 6 7 45 28 21 46 0 13 18 11 37 50
split_gain=113110 44628.4 22792.5 16474.6 16125.9 20773.2 15472.3 13959.3 13093.6 15466.8 13070.8 11964.6 11964.3 11234.7 9120.31 8345.94 8152.84 7956.51 7606.15 6759.95 7157.99 6613.2 6611.01 6587.36 6457.01 7759.14 6358.54 6788.11 5992.06 7319.38
threshold=10.018749713897707 33.968750000000007 -0.0024998664855957029 -0.08972967367256636 0.00823842617527667 1.3306739062863768 953.70313008626306 -0.060781288146972652 -0.274999988079071 20.747083270549776 9.5803125092138863 0.23499989509582522 1.2633680298980308 14.496249965826673 12.041146906199026 1.0834151762579738 5.3188269393981527 988.68750000000011 52.940277682410347 5.9563764729587438 0.029998779296875003 0.014999985694885256 2.2742593428455282 1041.6062469482424 1.2687500119209292 -0.0899998664855957 7.9597005049387626 8.3080055530771393 38.211018689296253 797.3818756103517
decision_type=2 2 2 2 2 2 2 2 2 2 2 2 2 2 2 2 2 2 2 2 2 2 2 2 2 2 2 2 2 2
left_child=3 2 8 6 -5 -6 28 14 23 26 -9 15 -12 16 -7 -3 17 -4 -13 -11 -21 -18 -14 -2 -8 -26 27 -10 -1 -30
right_child=1 11 13 4 5 7 24 10 9 19 12 18 22 -15 -16 -17 21 -19 -20 20 -22 -23 -24 -25 25 -27 -28 -29 29 -31
leaf_value=0.040224131370161162 -0.20584786156234869 0.3285817995995296 0.013691302323073648 -0.049379342835456155 -0.014033675472091332 -0.0119669346961988 -0.1118566500036127 0.12198489812799783 0.060262495506975183 0.10388760580138617 1.7543480107041658 0.43974776489368239 0.22901235100335615 0.20535073128951647 1.1042689252040676 0.12126090378019871 0.2588230668351591 0.30586975196786781 1.0210143238361649 0.16788846144242092 0.51663745299010777 0.088178445666687269 0.56084143310077694 0.34499922827777701 -0.12304346755104828 -0.045745401958359549 -0.00053582927566867683 0.33489588639779322 1.0979904174804689 0.21129107164215868
leaf_weight=4762 3005 4470 12072 50019 38100 6752 25973 9235 10001 8614 61 1407 1824 12562 74 3433 3860 1010 268 1715 896 5517 895 234 15060 94297 41649 989 100 1348
leaf_count=2476 2128 2572 11479 49605 37911 6338 25496 9190 9879 5676 7 822 1644 8248 11 1710 2191 581 264 742 320 4650 517 27 14403 92686 38827 571 10 655
internal_value=9.40485e-11 0.0835816 0.0642241 -0.0375703 -0.00795116 0.0284408 -0.0599532 0.114332 0.0300949 0.040043 0.179211 0.289978 0.369312 0.129618 0.000134069 0.238523 0.0872589 0.036249 0.53275 0.146612 0.287566 0.158424 0.338239 -0.166052 -0.0670357 -0.0563904 0.0173176 0.084977 0.0943908 0.272527
internal_weight=360202 111702 102124 248500 106960 56941 141540 18841 67103 63864 12015 9578 2780 35021 6826 7903 22459 13082 1675 11225 2611 9377 2719 3239 135330 109357 52639 10990 6210 1448
internal_count=331636 90687 85319 240949 105223 55618 135726 17707 58170 56015 11358 5368 2168 27149 6349 4282 18901 12060 1086 6738 1062 6841 2161 2155 132585 107089 49277 10450 3141 665
is_linear=0
shrinkage=0.1


Tree=26
num_leaves=31
num_cat=0
split_feature=10 12 12 10 13 6 20 3 53 0 13 55 3 52 7 59 21 25 47 8 12 5 5 39 24 2 49 6 3 59
split_gain=94494.9 39620 24283 15740.3 18782.3 15661.5 12623 10539.3 10106.5 9805.21 12866.9 9010.89 11533.6 9788.06 8334.54 7993.4 7831.99 7793.83 9665.08 7330.52 6651.46 6064.08 6028.8 5587.43 5411.02 5615.41 5458.89 5291.09 5185.13 5016.68
threshold=11.562291635169339 0.15500006675720215 0.08750000298023225 29.060977635239116 -0.23749990463256834 52.940277682410347 13.620432792287886 973.38748168945324 40.213863008249767 0.78125000000000011 -0.077500003576278662 0.011360549615014643 886.76248168945324 881.15968577067065 9.5701224789145893 0.28500366210937506 0.46760086858515204 1.7422311678767171 0.78234694402272376 6.1912499782939756 0.29749997854232796 3.128647398869735 0.21780368009668771 7.7586890349408355 13.189218759536745 895.83749389648449 11.086508826625494 27.090104262034099 858.78750610351574 -0.10499572753906249
decision_type=2 2 2 2 2 2 2 2 2 2 2 2 2 2 2 2 2 2 2 2 2 2 2 2 2 2 2 2 2 2
left_child=2 3 9 4 21 15 7 -4 17 -1 -11 12 29 -13 -15 20 -8 22 -19 -12 27 -2 -5 -24 25 26 -22 -3 -21 -6
right_child=1 5 6 8 11 -7 16 -9 -10 10 19 13 -14 14 -16 -17 -18 18 -20 28 24 -23 23 -25 -26 -27 -28 -29 -30 -31
leaf_value=-0.089173915617307586 -0.055526454700641249 0.13493070472507371 0.016398510696683091 0.66087906375331318 0.17453976601954696 0.91627994474850238 0.055811345776448057 0.2647067280976288 1.372278079852252 -0.094485861905261606 -0.036850546476378553 0.023545770672504213 -0.010581091085040368 0.13515615547439205 0.44658859598393175 0.69205757498168807 0.38931085341381777 0.43066115040259123 -0.097009653685717331 0.080238827693621131 0.5916475699593623 -0.30359124306670765 0.53286893768245647 0.18070152320713748 -0.2876508181914687 0.31690210299433325 1.8151440338654952 0.36937875351307786 -0.0053148169601300241 0.048756285475681845
leaf_weight=35682 2236 6813 29898 304 5793 347 1216 1813 71 28524 113210 9237 25588 14876 912 371 1673 434 1734 8237 213 1762 485 6337 138 3517 44 1121 50611 7005
leaf_count=35133 1825 4735 28347 109 4326 343 290 1277 71 27579 111311 8894 23797 12226 310 136 687 178 727 6660 180 1238 253 2804 80 1858 44 621 49648 5949
internal_value=2.2777e-11 0.0891843 -0.0294153 0.0622444 0.0453675 0.253804 0.048826 0.0305949 0.183724 -0.0408735 -0.0322812 0.0586217 0.0281847 0.105309 0.153146 0.234988 0.248939 0.174645 0.00862186 -0.0219688 0.220673 -0.164854 0.225155 0.205738 0.327387 0.349876 0.801118 0.168056 0.00666019 0.105692
internal_weight=360202 89338 270864 76774 67409 12564 34600 31711 9365 236264 200582 63411 38386 25025 15788 12217 2889 9294 2168 172058 11846 3998 7126 6822 3912 3774 257 7934 58848 12798
internal_count=331636 70704 260932 62707 58565 7997 30601 29624 4142 230331 195198 55502 34072 21430 12536 7654 977 4071 905 167619 7518 3063 3166 3057 2162 2082 224 5356 56308 10275
is_linear=0
shrinkage=0.1


Tree=27
num_leaves=31
num_cat=0
split_feature=8 13 12 6 45 19 10 35 47 2 12 45 49 24 10 28 28 21 32 31 1 17 18 17 6 15 55 15 8 13
split_gain=78391.1 32958.5 23031 22118.5 14324.1 14021.2 12182.6 12556.7 11542.3 11333.4 10395.3 9734.54 9080.22 8644.46 7994.45 7420.28 7320.52 7133.44 6220 5914.13 6895.23 5342.06 6539.77 5287.68 4850.47 4685.24 4590.13 4556.46 4489.78 4479.8
threshold=12.479999971389772 -0.032499790191650384 0.14624996185302738 40.968749735090476 -0.26249999999999996 0.86525061776399659 19.718750075499219 18.103285233195656 1.7527324395236434 987.33749389648449 0.25000001192092902 -0.25076293945312494 16.202371338447012 13.189218759536745 2.3115625150346513 -0.00062501430511474599 0.0059374332427978528 0.96996297267746745 896.57187398274743 -0.057499933242797847 5.4507811069488534 -0.42000064849853508 15.607682228088381 -0.10499973297119139 25.027951505449085 -0.25874996185302729 -0.015008544921874999 -0.12749999761581418 34.615937534968062 -0.009999895095825195
decision_type=2 2 2 2 2 2 2 2 2 2 2 2 2 2 2 2 2 2 2 2 2 2 2 2 2 2 2 2 2 2
left_child=2 4 8 10 9 6 13 17 11 -2 23 27 16 -6 -13 -16 -4 21 -10 28 -21 -8 -23 -3 -25 -11 -22 -1 -19 -20
right_child=1 3 12 -5 5 -7 7 -9 18 25 -12 14 -14 -15 15 -17 -18 19 29 20 26 22 -24 24 -26 -27 -28 -29 -30 -31
leaf_value=-0.154818660314058 0.16882187313969166 0.21298995471217377 0.21487538244097917 0.63266025386826663 0.059488413910949084 -0.10219529865399467 -0.16646799483623739 -0.08480855472895972 0.32033035590697001 -0.17733753252773204 0.29762819971845195 -0.066531817363230925 0.40741117331009635 -0.55078721763881844 -0.064050527366596485 0.0025841691783823639 0.039296026776137118 0.088994064344162196 -0.019030060266313941 -0.26903464918972081 0.2549785482751617 0.18611042063280359 1.0362284757034934 0.083307890271061419 0.21589862005015564 -0.03367427211761552 0.62374207490426326 -0.062877669556277785 0.66896267718143143 0.047547733946168208
leaf_weight=5801 2596 5757 2790 987 14066 3596 428 1415 658 2652 4206 35576 810 236 21148 79664 15950 891 22851 117 462 5516 92 17232 3285 15763 1253 76126 157 18121
leaf_count=5423 1040 3670 1839 914 13187 2461 254 1007 179 1954 2072 35576 508 236 21013 78512 14501 441 22077 62 319 3309 92 14419 1486 14203 429 74542 103 15808
internal_value=5.86605e-11 0.0868144 -0.0250685 0.166753 0.035729 0.0822609 0.109188 0.191933 -0.0329408 -0.0267881 0.151667 -0.0421425 0.079605 0.0494181 -0.0257765 -0.0113942 0.0654362 0.235853 0.0153143 0.365345 0.473729 0.174067 0.200057 0.128301 0.104537 -0.0543637 0.524402 -0.0693877 0.175879 0.0104158
internal_weight=360202 80707 279495 31467 49240 28229 24633 10331 259945 21011 30480 218315 19550 14302 136388 100812 18740 8916 41630 2880 1832 6036 5608 26274 20517 18415 1715 81927 1048 40972
internal_count=331636 61658 269978 22561 39097 21900 19439 6016 253130 17197 21647 215066 16848 13423 135101 99525 16340 5009 38064 1354 810 3655 3401 19575 15905 16157 748 79965 544 37885
is_linear=0
shrinkage=0.1


Tree=28
num_leaves=31
num_cat=0
split_feature=10 47 12 12 18 2 31 8 45 2 37 21 57 2 12 17 16 4 7 51 52 35 53 32 4 58 20 32 1 10
split_gain=64644.5 25846.5 18299.6 16060 13281.7 11967.5 11944.7 11387.5 10135.4 10955 8965.03 10657.2 8038.42 8405.21 7808.24 7252.5 7209.99 6613.64 7854.75 7173.32 6040.49 6807.01 5807.6 5582.92 6083.71 5452.23 5956.09 5049.33 5033.47 4717.18
threshold=14.638333264986676 1.8059786773771827 0.12250013351440432 0.089999973773956313 10.419010440508528 895.83749389648449 -0.10531251430511472 5.4222916821638751 -0.26249999999999996 971.36251831054699 23.334703105169577 1.4078626687539901 -0.030001831054687497 1157.8125000000002 0.0025005340576171879 -0.25250010490417474 0.60874996185302743 55.046875158945724 4.8835637171537227 19.632439287274206 780.66562423706068 13.804742438788182 33.273483685490874 953.70313008626306 29.984375000000004 0.68999633789062509 12.629123263888891 961.24062347412121 10.613281250000002 29.060977635239116
decision_type=2 2 2 2 2 2 2 2 2 2 2 2 2 2 2 2 2 2 2 2 2 2 2 2 2 2 2 2 2 2
left_child=1 4 6 23 7 16 27 -1 9 -8 11 17 -13 15 -9 -14 -4 -10 -19 -20 21 -6 -18 -3 -25 26 -5 -2 29 -7
right_child=2 3 5 25 20 28 8 14 10 -11 -12 12 13 -15 -16 -17 22 18 19 -21 -22 -23 -24 24 -26 -27 -28 -29 -30 -31
leaf_value=-0.038660838071501773 0.38834083417690429 0.1288664436905308 0.41065946836706291 0.088405567444033356 -0.0058271465858891905 0.17815085866263849 0.22464761800328109 -0.0270456142240274 0.11279209169427451 -0.0044067582717008192 -0.0016435638301287381 0.061495113129952261 0.7696636173115099 -0.09785496990546981 0.040334542672584024 0.36065371559803583 1.5311015386234172 0.79669384280249245 -0.03863185075132923 1.6333605391638621 -0.06985209111339695 0.66928482096594299 0.40289726072444099 -0.0014218776247143191 0.45446559323345204 0.57931717594536092 0.24098074304917746 -0.10808287256404359 0.0083037353632439276 0.38553476608966986
leaf_weight=100389 215 3822 724 9037 416 8043 2426 28579 15957 14988 4375 804 671 263 43189 1225 119 315 307 28 74860 233 74 37885 295 278 3569 4359 1487 1270
leaf_count=100056 154 1849 547 7885 56 4636 765 28273 12097 13123 3857 655 197 216 42133 811 119 307 265 28 71596 44 74 36234 110 98 1357 2634 827 633
internal_value=-1.2294e-11 -0.0184924 0.0970494 0.0435951 -0.0322517 0.208601 0.0685939 -0.0169151 0.0855524 0.0275035 0.127769 0.156699 0.331404 0.431917 0.0135028 0.505404 0.555434 0.125529 0.438204 0.101117 -0.0672186 0.236547 1.09853 0.0136357 0.00210056 0.141263 0.131603 -0.0847486 0.179152 0.206431
internal_weight=360202 302552 57650 54886 247666 11717 45933 172157 41359 17414 23945 19570 2963 2159 71768 1896 917 16607 650 335 75509 649 193 42002 38180 12884 12606 4574 10800 9313
internal_count=331636 289691 41945 47533 242158 6836 35109 170462 32321 13888 18433 14576 1879 1224 70406 1008 740 12697 600 293 71696 100 193 38193 36344 9340 9242 2788 6096 5269
is_linear=0
shrinkage=0.1


Tree=29
num_leaves=31
num_cat=0
split_feature=8 13 6 12 25 12 12 45 19 14 10 46 54 37 12 52 49 3 11 30 44 17 13 0 55 17 38 2 51 10
split_gain=53030.5 24160.1 15835.8 15201.9 10471.5 9738.13 8545.06 8224.59 8027.84 7749.24 8580.34 7246.33 6793.08 6686.79 6295 6238.34 5931.77 6052.16 5127.25 4928.26 4913.14 4870.31 4806.41 4774.26 6084.53 5544.75 4934.77 4664.31 4630.29 4608.69
threshold=11.942187501986824 -0.032499790191650384 40.968749735090476 0.19750013351440432 2.3973084250613845 0.0050000002607703221 0.37375028133392341 -0.18749999999999997 0.80294097759717131 -0.009999895095825195 19.718750075499219 859.21874745686853 0.045001220703125004 23.334703105169577 0.49250001907348634 991.76920517767871 4.7083503805722513 902.43750000000011 9.6233745219997804 0.02328128814697266 -0.35250244140624992 -0.24875011444091794 -0.2049999952316284 61.475000381469734 -0.04500122070312499 -0.24875011444091794 1161.3609329223634 914.66250610351574 11.575984007899946 38.654010478655501
decision_type=2 2 2 2 2 2 2 2 2 2 2 2 2 2 2 2 2 2 2 2 2 2 2 2 2 2 2 2 2 2
left_child=3 4 6 5 7 27 18 11 9 -9 -11 -2 16 23 20 -14 -7 19 21 -18 -5 -3 -6 24 -12 26 -26 -1 -25 -13
right_child=1 2 -4 14 22 12 -8 8 -10 10 13 29 15 -15 -16 -17 17 -19 -20 -21 -22 -23 -24 28 25 -27 -28 -29 -30 -31
leaf_value=0.23043003873050114 0.1231354357066335 0.44667782436272035 0.52882101136130466 0.40324317863851999 -0.256676334469225 -0.031711426830671186 0.33322389248696982 -0.032975625608750551 -0.062569286563542839 0.074107252244204155 0.0023891910124897763 -0.03235704909681527 0.023991221005465063 -0.049715899435218383 0.375365121104137 0.4138955113148115 0.15269828447467323 -0.041660507584258807 0.19825362237496391 0.010183235745092049 0.058979493756196578 0.085996617358238936 -0.046727736965471549 0.17636950024403633 0.50480574809955925 0.2061623174292313 0.057339229327220242 -0.048381679850166906 1.1821150278098116 0.37276166590420828
leaf_weight=603 3891 380 987 433 1533 88002 1815 3366 3294 10079 921 19101 36610 820 742 415 5031 6335 5434 4687 9729 25302 3777 80 1425 3306 298 121414 107 285
leaf_count=198 1934 203 914 87 1146 85788 820 2750 2318 9397 576 17201 36232 634 421 226 4031 6020 2503 3607 8370 20432 3294 78 537 1846 59 119749 107 158
internal_value=5.11307e-11 0.0684084 0.134138 -0.0215214 0.0257674 -0.0263166 0.122308 0.0408143 0.0822867 0.105674 0.133069 -0.0014046 -0.00842465 0.21849 0.0941798 0.0283615 -0.021514 0.0343883 0.110006 0.0839632 0.0736485 0.0913334 -0.10734 0.254327 0.23869 0.281966 0.427415 -0.0470038 0.75185 -0.0264013
internal_weight=360202 86201 33918 274001 52283 263097 32931 46973 23696 20402 17036 23277 141080 6957 10904 37025 104055 16053 31116 9718 10162 25682 5310 6137 5950 5029 1723 122017 187 19386
internal_count=331636 66907 24872 264729 42035 255851 23958 37595 18302 15984 13234 19293 135904 3837 8878 36458 99446 13658 23138 7638 8457 20635 4440 3203 3018 2442 596 119947 185 17359
is_linear=0
shrinkage=0.1


Tree=30
num_leaves=31
num_cat=0
split_feature=0 10 13 32 18 45 20 24 11 32 38 7 55 49 28 31 25 9 6 53 25 33 23 15 8 31 57 37 7 53
split_gain=43874 19741.1 12004.9 10799.7 10953.9 9150.5 8776.22 10939.1 8327.18 8324.18 7504.53 9151.65 9440.52 6327.98 6155.94 6077.11 5851.44 9860.21 5726.02 6799.19 6674.45 5618.59 5763.89 5575.77 5641.4 5046.68 4912.18 4854.44 4837.99 4616.06
threshold=22.91874980926514 9.4213020980358149 -0.16499986648559567 953.70313008626306 7.9597005049387626 0.015008544921875002 12.856553779708017 12.548417953650159 18.331760971638221 971.67186991373717 999.81793009440116 3.9293733157382502 -0.014996337890624998 7.9233755037706315 0.014843654632568362 0.0037501335144042975 0.42269729515715215 6.3023359592121508 52.940277682410347 31.584889799174928 0.66206315353329936 4.4466005194839084 1.2571975518061709 -0.1087501525878906 2.457916661103567 -0.00093736648559570299 -0.33749999999999997 25.182688766246397 11.422503590503679 20.342186644640897
decision_type=2 2 2 2 2 2 2 2 2 2 2 2 2 2 2 2 2 2 2 2 2 2 2 2 2 2 2 2 2 2
left_child=1 3 -3 14 -5 9 7 8 21 13 -7 -12 -13 -4 26 16 17 -8 27 20 -20 28 -23 -6 -25 -19 -1 -18 -2 -14
right_child=6 2 5 4 23 10 15 -9 -10 -11 11 12 29 -15 -16 -17 18 25 19 -21 -22 22 -24 24 -26 -27 -28 -29 -30 -31
leaf_value=0.69417293322911056 0.12515665447960492 -0.071091487096341763 0.079738366055554066 0.01019751797430824 -0.10456783828306458 -0.022180828613319589 1.0867230459766568 -0.36907182650189529 0.60556108907722273 0.0083198805121984225 0.080789959924742777 0.024984028986773127 0.37547344739971378 0.33422506757782794 -0.021437889440966348 -0.61688111832508685 0.14813374303610177 -0.77806345810189503 1.265448614529201 1.2841575909889751 0.11285941377282144 0.13998815693654762 -0.033320926631415088 -0.064826905239924126 -0.024429597150611999 0.48163229361886073 0.13026650557243347 0.57363357647192603 0.3524585751694459 0.032431007775815979
leaf_weight=159 16994 10769 4554 52292 13154 4513 53 479 339 54616 14259 1441 2968 1244 3595 65 657 131 70 154 178 3223 4743 49956 112229 42 5429 453 991 452
leaf_count=42 10067 8801 2465 52029 12713 4180 53 417 175 51126 13443 1333 1883 450 1588 65 257 99 70 154 176 1832 3415 49794 110915 34 3111 274 295 380
internal_value=7.80958e-11 -0.0102441 0.0283145 -0.0256823 -0.0299715 0.0410514 0.118901 0.104518 0.113147 0.0204142 0.0938073 0.121185 0.239676 0.13434 0.0806404 0.332452 0.367957 -0.106644 0.438896 0.762265 0.438187 0.106714 0.036799 -0.0419512 -0.0368727 -0.472241 0.146312 0.321784 0.137681 0.330136
internal_weight=360202 331630 94816 236814 227631 84047 28572 26769 26290 60414 23633 19120 4861 5798 9183 1803 1738 226 1512 402 248 25951 7966 175339 162185 173 5588 1110 17985 3420
internal_count=331636 314253 84061 230192 225451 75260 17383 16201 15784 54041 21219 17039 3596 2915 4741 1182 1117 186 931 400 246 15609 5247 173422 160709 133 3153 531 10362 2263
is_linear=0
shrinkage=0.1


Tree=31
num_leaves=31
num_cat=0
split_feature=10 12 13 6 49 0 13 23 31 3 35 45 13 8 32 44 49 42 22 12 27 32 35 21 49 49 58 23 16 37
split_gain=37003.5 17642.1 10950.9 11755 10761.9 7959.78 8547.27 7783.36 7516.85 6477.77 6326.86 7244.44 5859.66 6889.45 5293.14 5457.02 5277.83 5089.61 4581.52 4401.19 6890.82 4377.06 5584.03 6846.17 4868.76 4761.95 4085.77 3936.81 3818.19 3735.67
threshold=17.550260456403098 0.085000133514404316 -0.08999999761581419 40.968749735090476 6.6981116019660467 5.7187500000000009 -0.13249993324279782 1.0939195481877801 -0.10328125953674315 988.68750000000011 16.822307997448036 0.029998779296875003 -0.027499991655349731 1.024791679158807 996.44375356038415 -0.029998779296874997 7.9233755037706315 0.41250000000000003 6.6974088470141107 0.37375028133392341 -0.02828121185302734 936.52812703450536 17.237287706542563 1.7319661858409734 2.3484492157620078 6.4630545338873313 0.68999633789062509 1.9990999069085456 0.08750000298023225 15.386443633334277
decision_type=2 2 2 2 2 2 2 2 2 2 2 2 2 2 2 2 2 2 2 2 2 2 2 2 2 2 2 2 2 2
left_child=1 5 8 7 9 12 -7 -4 -2 19 11 -10 -1 -14 16 -16 28 -11 -13 -3 -21 25 23 -23 -25 -9 -6 29 -8 -20
right_child=2 4 3 -5 26 6 14 21 10 17 -12 18 13 -15 15 -17 -18 -19 27 20 -22 22 -24 24 -26 -27 -28 -29 -30 -31
leaf_value=-0.064557368528024336 -0.1259549902598377 0.0024480842064256384 0.053915980565391597 0.41774036699793848 0.12230989420838034 -0.075893328093691412 0.078067956959313206 0.24347717326064156 0.04786812513374842 0.17709491148233936 -0.05422236459883472 -0.37035920380527143 -0.068567607684611814 -0.0095703168868966522 -0.03442121865496043 0.018777719460422039 0.26175598987572757 0.89894359044308936 0.28493959877572189 0.65921301285365252 0.083880954619825157 0.16106946746995587 0.04743576597017319 0.63661781829118524 0.23779233908622627 0.79961802296100126 0.49298061582874636 0.54325321676573535 -0.059995672322063515 -0.037221297022475994
leaf_weight=48197 2694 32476 10858 1362 10544 13296 9169 530 7524 1244 3760 117 25580 87498 29392 56056 1280 106 1593 246 1354 6723 3380 556 681 217 306 435 2563 465
leaf_count=47225 1230 30533 7571 1219 7820 12670 7331 109 5023 764 2995 72 25364 85608 28880 54839 947 16 873 124 1144 3840 2334 136 387 102 108 80 1937 355
internal_value=1.10583e-11 -0.0114704 0.0895607 0.132309 0.0456247 -0.0211475 -0.000636194 0.115366 0.0269198 0.0189364 0.0565617 0.0976657 -0.0353608 -0.0229164 0.0095265 0.0004786 0.0689428 0.233773 0.24122 0.0104251 0.172338 0.170568 0.155123 0.20085 0.417054 0.405033 0.132764 0.269922 0.0479063 0.212148
internal_weight=360202 319307 40895 24307 46276 273031 111756 22945 16588 35426 13894 10134 161275 113078 98460 85448 13012 1350 2610 34076 1600 12087 11340 7960 1237 747 10850 2493 11732 2058
internal_count=331636 305310 26326 15698 40509 264801 106604 14479 10628 32581 9398 6403 158197 110972 93934 83719 10215 780 1380 31801 1268 6908 6697 4363 523 211 7928 1308 9268 1228
is_linear=0
shrinkage=0.1


Tree=32
num_leaves=31
num_cat=0
split_feature=0 2 18 3 56 24 45 31 21 54 24 35 24 17 6 11 8 49 3 20 35 30 10 25 28 53 53 38 44 0
split_gain=30847 14723.2 12793.2 10587 13635.5 9497.23 9024.01 10325.7 10823.3 8886.13 8309.14 8252.97 6796.77 6698.17 6477.51 6567.26 6450.1 5998.16 5646.36 5627.85 5776.39 5581.25 5704.06 5636.92 5477.24 5429.26 7204.28 5302.82 5206.19 5084.17
threshold=10.018749713897707 926.81250000000011 11.329687476158144 957.18750000000011 0.015008544921875002 7.4955208301544198 0.065697555380009307 -0.060781288146972652 1.3112383883048986 0.045001220703125004 11.751484366257989 5.1578649653788124 8.6194270988305437 -0.26249990463256828 8.21076391802894 1.2342435513365679 18.630104176203414 13.341917132440148 1046.2874755859377 15.182769060134889 23.335333787352535 0.0053126335144042984 49.597708241144822 0.42269729515715215 0.025000023841857916 33.273483685490874 29.874720027631565 932.28375193278009 0.18152903328954648 0.84375000000000011
decision_type=2 2 2 2 2 2 2 2 2 2 2 2 2 2 2 2 2 2 2 2 2 2 2 2 2 2 2 2 2 2
left_child=6 11 3 10 18 -6 19 -8 -9 -10 16 -2 -11 -7 -14 -16 -3 21 -5 29 27 22 23 -13 -20 26 28 -21 -23 -1
right_child=1 2 -4 4 5 13 7 8 9 12 -12 17 14 -15 15 -17 -18 -19 24 20 -22 25 -24 -25 -26 -27 -28 -29 -30 -31
